// weights.h : exported MLP weights
// Generated by create_mlp_weights.py

#define MODEL_NUM_LAYERS 3

#define ACT_NONE 0
#define ACT_RELU 1

// Structure describing each fully-connected layer
typedef struct {
    int in_features;
    int out_features;
    int activation_type;
    const float *weight;
    const float *bias;
} LayerDef;

static const float FC0_WEIGHT[] = {
    -0.025068337, -0.0080600055, 0.006149232, -0.03751915, 0.0136898905, 0.0010808902, 0.0189287, -0.03623831, 0.003297699, -0.010361848, 0.01926071, -0.03448204, -0.0131623205, -0.033538118, -0.008966535, -0.011354224, -0.012054468, 0.022127809, 0.023263643, 0.02912245, 0.025779795, 0.00797155, -0.029234389, -0.0063174134, 0.0020608543, -0.039007097, 0.012956938, -0.026961388, -0.040574245, 0.02512659, 0.016652778, 0.0017184066, -0.009685878, -0.011002296, -0.018707782, 0.019663097, 0.030158203, -0.030536462, 0.017018408, 0.006315367, 0.013469364, 0.00696235, -0.031732287, 0.021139208, 0.011360123, 0.030495992, -0.0008509572, 0.039950497, 0.022608532, 0.004995842, 0.008383499, -0.01264307, -0.036858104, -0.0038751082, -0.026661076, 0.0016304507, -0.028138181, -0.022073178, 0.033802763, 0.037818648, 0.0040387427, -0.00028119775, 0.025006719, -0.021754526, 0.041931182, -0.022313852, 0.02408204, -0.022439882, 0.049165085, 0.038899485, 0.012986768, -0.00028010402, -0.0125530185, 0.01904366, -0.006430434, 0.04224788, 0.014473483, -0.014901258, -0.01530036, -0.014735292, 0.010348875, 0.0075945104, -0.035850648, -0.039149936, -0.01657204, 0.0076790205, -0.0011214009, -0.029533587, -0.019070651, -0.023041435, -0.006029627, 0.0017007387, 0.035081673, 0.016949853, 0.009398955, -0.014552764, -0.008702073, -0.03182864, -0.029315688, -0.0072675464, -0.010698496, -0.006570271, 0.012160769, -0.039412346, -0.017150883, -0.04020398, -0.014184106, -0.039043024, -0.012191831, -0.047813408, -0.02867873, -0.03791817, -0.0291646, 0.012996194, 0.03459411, 0.005635234, 0.008214694, -0.038140804, 0.015832152, 0.0281934, -0.01865629, -0.03256495, -0.04709737, 0.015880572, -0.0065710847, 0.0131726675, -0.027735217, -0.012426104, -0.042505335, -0.045016002, -0.060519338, -0.027061164, -0.012262115, -0.025911644, -0.017103903, -0.0043351674, -0.047351282, -0.004860713, -0.0116483215, 0.0013874155, 0.02906787, 0.01079514, -0.017737426, -0.024679556, 0.028268838, -0.027236825, 0.013627198, -0.0078412285, 4.0906623e-05, -0.03613233, 0.009815228, -0.036051948, -0.03582761, -0.004369068, 0.0044131037, -0.047403537, 0.0045576175, -0.053426348, -0.060862303, -0.054038916, -0.057367153, -0.03930204, -0.043191046, -0.041415263, -0.018318105, -0.011950099, 0.012167853, -0.03653049, -0.006830996, -0.00073383213, -0.014185781, 0.03977243, 0.023298306, -0.028503655, -0.01674646, -0.027686508, 0.01421356, -0.004578599, -0.022084998, 0.0011538492, -0.0034844, -0.012423531, -0.045143653, -0.047982484, -0.033851117, -0.014830624, -0.04891535, -0.029856617, -0.05459953, -0.028064582, -0.05716243, -0.041559424, -0.058766738, -0.012114532, -0.01990764, 0.019138588, -0.030800583, -0.021814303, 0.007173363, 0.018366436, 0.018441515, -0.026582632, -0.010005833, -0.023084931, 0.0016861168, -0.044371575, 0.0037697253, -0.029688418, 0.009106795, -0.057341352, -0.037641004, -0.011437766, -0.036948882, -0.041414723, -0.0059782593, -0.0002821446, -0.07534168, -0.048009407, -0.031314902, -0.02083903, -0.047135416, -0.03045617, -0.02260352, -0.04596983, -0.011274741, 0.03612214, 0.03894627, 0.050433617, -0.036055222, -0.03518318, 0.0008010918, 0.02624642, 0.033799533, -0.0273583, 0.03136765, -0.0042848317, -0.04251348, -0.008353278, -0.010498944, -0.04884819, -0.019341627, -0.04313246, -0.04607718, -0.011185501, -0.064050816, -0.008590798, -0.04716922, -0.009756547, 0.0030650354, 0.0023576675, 0.01788438, -0.041029956, 0.0040462287, 0.013389233, 0.05738454, 0.02216408, 0.013831706, 0.0359683, 0.009974878, -0.0049777194, -0.010365647, -0.022345243, -0.0038199285, 0.027027793, -0.033046775, -0.0051719714, -0.016329385, -0.014295877, 0.022050992, -0.042058643, -0.04020668, 0.007768489, -0.05641145, -0.049708005, -0.06781295, -0.011303425, -0.04694812, -0.047940012, -0.046464335, 0.0125461435, -0.014877154, 0.009993454, 0.029748233, 0.019473683, -0.017462678, 0.0002558018, 0.024240106, -0.03420772, -0.0034008285, -0.028542383, -0.015835585, 0.029537646, -0.008770129, -0.031439614, 0.016709268, 0.037928205, 0.008824003, 0.019126296, 0.00760387, -0.0062057204, -0.019403616, -0.034177545, -0.05835956, -0.017153146, -0.021229712, -0.00847357, -0.054627653, 0.004078487, 0.03217586, 0.058636136, 0.02583419, 0.024086762, 0.04181591, -0.021450512, -0.022481568, -0.012895912, -0.039804783, 0.005372078, 0.013469735, 0.010740841, 0.0149083715, -0.01336169, 0.00397635, 0.015952753, 0.03730774, 0.0026215517, 0.035850428, 0.021415086, -0.00032646282, -0.009759656, -0.024086434, 0.010638825, -0.0061260406, -0.007286471, -0.056825403, -0.029961184, 0.017295469, 0.029396296, 0.03810585, 0.04029085, 0.033077583, 0.027456501, 0.003760737, -0.0013998764, -0.0231107, -0.036285743, -0.0026354245, -0.037272774, 0.024147077, -0.016600305, 0.043042835, 0.022227319, 0.023543626, 0.016445635, -0.008714718, -0.0015861684, -0.0036381143, 0.032153875, 0.039362654, -0.034306087, -0.026052274, -0.0392977, -0.05096549, -0.025626827, 0.010402691, 0.008909122, 0.041620556, 0.00813475, 0.041604817, 0.0010540934, 0.020904439, -0.018315863, 0.005167125, 0.026659312, 0.01721247, -0.038711134, -0.031983193, 0.0058191796, 0.018332524, -0.0063853213, -0.018705448, 0.007617103, 0.036250647, -0.0028212701, 0.047044143, 0.054359443, 0.008101352, -0.01378463, -0.043968786, -0.01604053, -0.0233553, -0.04375324, -0.008446403, 0.018975085, 0.037792187, 0.021212593, 0.05489352, 0.042890903, 0.043642227, -0.015277966, -0.0045379675, -0.025378183, -0.020291569, -0.0373111, -0.006634006, -0.048452213, -0.05063552, 0.0053271316, -0.044311393, -0.008302177, 0.020357678, 0.042196978, 0.01252318, 0.04188157, 0.009194108, -0.0074711926, 0.02065628, 0.01305219, -0.024591738, -0.039811984, 0.01918681, -0.023077443, 0.053120278, 0.0015121794, 0.031151064, 0.034551658, -0.0051968507, 0.015603614, -0.011395269, -0.032410983, -0.036805067, 0.0026716099, -0.025740353, -0.037437577, -0.024373893, -0.04042554, -0.012360511, -0.0058703544, 0.008805141, 0.0500966, -0.0017260592, -0.011960262, 0.020193106, 0.031092428, 0.0018225063, -0.02034844, 0.016605156, 0.0015242602, 0.016859805, 0.027203571, 0.030782847, 0.03512974, -0.011239731, 0.007985254, -0.0060906475, -0.014043892, -0.047744345, -0.035704263, -0.066499464, -0.02016005, -0.03786044, -0.033626404, -0.020508917, -0.045500986, 0.011276574, -0.0033862067, -0.017243959, -0.012012435, 0.015620946, 0.011371606, -0.006676585, -0.0068854825, -0.0061928025, 0.0440086, -0.02088658, 0.0468165, 0.006729737, 0.00954444, 0.021421682, 0.038794965, -0.034771066, -0.030717315, -0.035817813, 0.007679498, -0.018630428, -0.023711337, -0.05034213, -0.008085175, -0.01368643, -0.067911364, -0.006783826, -0.043806065, -0.039515935, -0.028793937, -0.03221789, -0.024022227, -0.009671913, 0.016567778, -0.0114954, -0.031615328, -0.015518801, -0.004161742, -0.019976988, 0.035924785, -0.042404238, -0.018722415, 0.03493289, 0.009628499, 0.0040155402, -0.005682925, -0.021739399, 0.003258944, -0.017830169, -0.010246197, -0.052514315, -0.0071662725, -0.016370606, -0.0038105221, -0.04522754, -0.018237285, -0.020525094, -0.008141469, 0.0019241188, 0.015524111, -0.020111544, -0.038541604, -0.016926264, 0.0178663, 0.022865254, 0.047162287, -0.008161076, -0.010416514, -0.008942677, -0.025035191, -0.048453543, 0.015529822, -0.026219364, 0.012037439, -0.04200609, -0.02157676, -0.028489418, -0.03651152, -0.02199203, -0.0026063852, -0.0042326334, -0.042422432, -0.03527716, -0.036115475, 0.012258994, 0.0070769046, 0.032857977, 0.003210092, 0.013840976, 0.013471603, -0.0036695835, -0.0036980843, -0.018932916, 0.008074495, 0.046407312, -0.009130426, 0.002646874, -0.01548206, -0.025384225, -0.014120367, -0.0017916822, -0.048360232, -0.057905134, -0.036447994, -0.0109585775, -0.050432727, 0.0061152754, 0.014744784, -0.027618049, -0.043882422, -0.005440348, -0.043990053, -0.011184577, 0.023440516, 0.008986087, 0.011759275, 0.044075396, -0.017958902, 0.02155811, 0.018886112, 0.030083876, 0.035003446, 0.038239926, 0.045998264, -0.040791716, -0.0019683808, -0.057930898, 0.005356031, -0.004431758, -0.029604798, -0.047369972, -0.049130447, -0.044583023, -0.039593395, -0.053454023, -0.019970303, -0.026472567, -0.002654414, 0.0018539517, -0.0044958005, 0.011798873, 0.039993085, -0.024786122, -0.019949904, 0.03137059, 0.022349661, -0.024458678, 0.040769108, 0.04335279, 0.015382164, 0.027155293, -0.02310473, 0.021291254, 0.0076022143, -0.029983819, -0.024295311, -0.02880183, -0.017650744, -0.033970736, 0.0032672351, -0.0350723, -0.022481082, -0.022865608, 0.0027159085, 0.014172265, -0.050498217, -0.035595454, -0.023431174, -0.0020779227, 0.03816636, 0.032466684, 0.038049057, 0.019815704, -0.021931557, 0.016618554, 0.06625477, 0.008247143, -0.013318235, -0.006691791, 0.021322068, -0.0021173127, -0.023083415, 0.007601063, -0.036412153, -0.018025063, -0.06364286, -0.024226801, -0.016334165, -0.035186384, -0.022001345, 0.0135603435, -0.044774387, -0.018546686, -0.048550673, -0.019367984, -0.0021342468, -0.019332279, -0.017125791, 0.01275936, 0.050013583, 0.04821394, 0.043803275, 0.0616914, 0.04155921, 0.020686371, -0.014363652, -0.00064887723, -0.022706743, -0.019392598, -0.013158076, -0.05205131, -0.015268329, -0.0437974, -0.024742665, 0.012226073, -0.013988991, -0.025181534, 0.015442124, -0.009132855, 0.004993675, 0.01740027, -0.00051686855, -0.0045313006, 0.031248441, 0.046231102, -0.007006475, 0.0565176, 0.04956207, 0.04012824, 0.016785007, 0.01809804, 0.020331535, 0.008845297, 0.00021828477, -0.05003091, -0.043898735, -0.042626876, -0.046210475, 0.014511072, 0.018618476, 0.007895393, 0.0019281007, -0.005778107, -0.0007189067, 0.026238903, -0.010422227, -0.00422434, 0.050760433, -0.004975374, 0.029244704, 0.03973566, 0.017042184, -0.004652806, 0.009223081, 0.039423794, 0.011431273, -0.0007321627, 0.010581599, 0.022130162, -0.025971645, -0.03806806, -0.032614537, -0.063654654, -0.0023247555, -0.010649587, -0.04802251, -0.0073476126, 0.01959122, 0.0048676403, 0.034760218, 0.038950615, 0.02554479, 0.024552943, 0.00076447154, 0.041682404, -0.007026332, 0.028158912, 0.030960863, 0.02172836, 0.024710486, 0.03773884, -0.0014334046, -0.006856347, 0.000652231, -0.008807752, -0.034351304, -0.029574065, -0.013721966, 0.002124034, -0.011238251, -0.03692462, -0.015655814, 0.030624408, 0.0019632676, -0.00090048724, -0.02354619, 0.022643361, 0.054170262, -0.0068765045, 0.0447656, 0.048116796, 0.037560735, 0.05111455, 0.005160702, 0.0044308617, 0.0462081, -0.021816764, -0.0038949267, -0.014096922, 0.017983954, 0.025552776, -0.023174867, -0.03304493, -0.00049373374, -0.04020913, -0.054312125, -0.036896087, -0.037984185, 0.008498, -0.0054522506,
    0.017101036, -0.040052425, -0.009151486, 0.0072505944, -0.04634179, 0.0032140005, -0.050945934, -0.030070396, 0.01781354, -0.006380337, -0.020001598, -0.00037048577, 0.022540309, 0.0046073827, 0.01112934, 0.013277111, -0.041440483, -0.044766232, -0.046640933, -0.008426433, -0.027870212, -0.04475408, -0.028205885, 0.0020389075, -0.05127698, -0.046529125, -0.059173707, -0.022734687, -0.04254145, -0.0059879874, -0.04248754, -0.020643549, 0.005842572, 0.0011610996, -0.016194023, 0.0102149565, 0.012190555, 0.0124379145, -0.0061266767, -0.005710151, 0.022599744, 0.011462844, -0.0129240975, 0.018336926, 0.039005596, 0.029440451, -0.03418138, -0.047365714, -0.030716628, -0.056219928, -0.03698585, -0.0107387155, -0.008487762, -0.004325243, -0.0030937197, 0.003396158, -0.024985883, -0.030205704, 0.0053343964, 0.0028295345, 0.008997236, 0.0076062432, 0.0059115137, -0.024867749, -0.034291446, -0.015912326, 0.014376252, 0.0076248627, -0.022974905, 0.007887682, -0.017736249, 0.019818624, -0.0035828361, 0.037621025, 0.026057554, -0.0151786925, 0.01875581, -0.04321738, -0.04438356, -0.004236852, -0.055895384, -0.019297281, -0.05964134, -0.039945357, -0.034084998, 0.01621598, -0.046163745, -0.0013819276, 0.0030584002, 0.025693523, 0.0020857237, -0.006372842, -0.0123365065, -0.002364921, 0.007898856, 0.029275324, 0.021307312, 0.018256465, 0.024332283, 0.043759696, 0.021227617, 0.02469062, 0.05039509, -0.00021917892, 0.040090896, -0.023516443, 0.035333924, 0.032445267, 0.028173823, -0.035896428, 0.013349239, -0.046786647, -0.0032124189, -0.03947395, -0.025353422, 0.031182677, 0.019074004, 0.027798085, 0.023370836, 0.03908313, 0.019949336, 0.047940835, 0.03846028, 0.031008516, 0.020745283, 0.021312825, -0.011558835, 0.044491716, 0.01501799, 0.03906492, 0.014737666, 0.034895066, 0.019414127, 0.034484617, 0.031035729, 0.043125287, 0.017722033, -0.018287012, 0.011648818, -0.041817628, -0.017307144, -0.045183524, 0.018252607, 0.033290945, -0.019056285, -0.016919307, 0.017521294, 0.04565496, 0.0020136777, 0.0140383635, 0.0072900015, 0.039156944, -0.016452026, 0.021774918, 0.031241028, -0.0035084025, 0.042886764, 0.021717278, -0.0018566103, 0.03354391, 0.032924388, -0.009538603, 0.019828998, 0.00896869, 0.005959913, 0.037884112, -0.023791203, -0.020958526, -0.044149417, -0.00053876196, 0.008334729, 0.035230022, 0.0060069067, 0.026392754, 0.033499137, -0.0027211814, 0.04339884, -0.016025044, 0.026346825, 0.023091577, 0.006021463, 0.06233007, 0.03624121, -0.008494266, -0.026354298, -0.018326368, 0.0016419615, -0.015284854, 0.031020574, -0.014062028, 0.038606547, -0.010845947, 0.03013474, -0.012314836, 0.0014555736, 0.0066240868, -0.018247133, 0.027456114, 0.032400567, -0.016873077, -0.0055388953, 0.010805218, -0.0028372866, 0.015199238, 0.0120267, -0.012710976, 0.026729306, 0.03770227, 0.048447184, -8.087104e-05, -0.0037582002, -0.0057179146, 0.036998842, 0.017322129, 0.017151225, -0.006969999, -0.012540419, -0.004050855, 0.012761476, -0.019814046, 0.024433002, -0.0015138077, 0.021543307, -0.0052226386, -0.008100007, -0.015820013, -0.017591208, 0.0065880357, -0.017083842, 0.013514542, 0.05317061, 0.011275338, -0.005490477, 0.031589184, -0.020621777, 0.01201316, 0.027506704, 0.042292446, -0.010732482, 0.018183148, -0.0062226956, -0.007912798, -0.0030591649, -0.021546843, -0.0034612534, -0.029953213, 0.032043934, 0.005159324, 0.033391695, 0.007179216, 0.02462589, 0.0311819, 0.022001857, -0.00966727, 0.02696176, 0.017817115, 0.03368204, -0.011289452, -0.010037611, -0.018103704, 0.01736919, -0.014586924, -0.036952946, 0.0042435247, 0.020585896, 0.024157684, 0.020579407, 0.026754562, -0.02352253, 0.0077423, 0.028762272, 0.005813048, -0.0032963878, 0.035704475, 0.0032069033, -0.034632966, -0.009241283, 0.04396724, -0.0060058897, 0.013317534, 0.0282533, -0.0027793453, 0.035985444, 0.025590487, 0.022332279, 0.021790387, 0.0269842, 0.021436926, -0.034389764, -0.03862412, -0.03201269, -0.01208584, 0.0082444735, 0.014523596, 0.014584829, -0.013887853, 0.010085153, 0.014883434, 0.0069413874, 0.008955441, 0.023264788, -0.004428197, -0.0055938913, 0.030648217, 0.020919515, 0.05005548, -0.006200327, 0.002191774, -0.006456231, 0.024515541, -0.007228767, 0.007605309, -0.019783797, -0.023146186, 0.0098628905, -0.03603803, -0.02890737, -0.021061447, -0.03801566, 0.0015985182, 0.013966402, -0.0031719557, 0.0022363593, -0.057003736, 0.0018413997, 0.019374112, -0.024915239, -0.02370252, -0.006009781, -0.0138138, -0.020496273, 0.02177347, 0.014323031, 0.014611225, 0.0009048023, 0.029988391, 0.041406106, -0.024368148, 0.03659713, -0.006246483, -0.0072753388, -0.004807253, 0.0047465363, -0.031008711, 0.00090108806, -0.02710081, -0.011422415, -0.023379488, 0.0078048296, -0.01560745, -0.03797522, -0.044699833, -0.0104994485, -0.032127887, -0.014716513, 0.003693822, -0.036373746, -0.012850232, -0.037245147, -0.012779476, -0.014194777, -0.021115195, 0.03175233, -0.0006488513, 0.00635131, 0.033226494, -0.019359557, 0.003856148, -0.04718035, -0.011627781, 0.0026307353, -0.00034596463, 0.012313515, -0.041772828, -0.028809031, -0.019633891, -0.016569624, -0.0069962763, -0.029628767, -0.046231046, -0.0051525733, -0.022828223, -0.036444183, -0.044262122, -0.01296368, -0.0076875645, -0.045342226, 0.006292455, -0.03263817, 0.012458396, 0.04627354, 0.01651901, 0.032414816, -0.0015892694, 0.030067464, 0.010921192, -0.05649788, 0.006042602, -0.024291145, -0.05388018, -0.05475712, 0.010182495, -0.046908256, -0.022850223, -0.03075696, 0.029305344, -0.014569862, -0.002103724, -0.0027386067, -0.021060498, -0.025291612, -0.0509477, -0.044793554, -0.041015893, -0.046371818, -0.014195122, -0.0549468, -0.014461394, -0.016027516, 0.023277976, 0.012464712, -0.0075609493, 0.027341388, -0.018613582, -0.054911382, -0.009875693, -0.0024748412, -0.018806783, 0.0029472872, -0.03408657, -0.0011728281, -0.014033985, -0.015578645, -0.0112777855, -0.036456138, 0.01965872, -0.031169625, 0.0016366306, 0.008805806, -0.013089032, -0.022538347, -0.010898286, -0.013364454, -0.02820216, -0.0616636, -0.05066042, -0.03434349, 0.014842151, -0.037926033, 0.028611308, 0.0215614, -0.006786485, -0.028143521, -0.050711304, 0.0008312065, -0.008156815, -0.012272756, -0.046519272, -0.04016319, -0.002343794, 0.022273064, -0.040318098, -0.017348018, -0.05101402, 0.006174192, -0.012226306, -0.053838402, 0.0042952904, -0.047465272, 0.007519874, -0.012228444, -0.0336322, -0.062173992, -0.062446713, -0.023595732, -0.012714601, 0.010467652, -0.0043249372, -0.025507564, -0.04797253, -0.025034359, -0.017915262, -0.011823168, -0.0034098795, -0.007994061, -0.007926637, -0.041831654, 0.01852866, -0.019189011, -0.0063515217, 0.00012986439, -0.031208051, -0.034813106, -0.045896042, -0.036281526, -0.0014223432, 0.0011282412, -0.014427697, -0.043862283, -0.01838998, -0.036534347, -0.020674082, -0.02211994, -0.021358883, -0.010279694, -0.017653698, 0.015628936, 0.0011874171, -0.031079518, -0.036834873, -0.027041646, -0.037585933, -0.050664153, -0.0059364857, 0.013400209, -0.014595152, 0.0066495184, -0.014595096, -0.058785915, 0.010705562, -0.04199604, -0.04500976, -0.06225378, -0.04760183, -0.010903112, -0.012931672, -0.018873876, -0.04178391, 0.014007168, -0.0071662534, 0.015699357, 0.0008847875, -0.003563233, 0.004213011, 0.018340979, -0.004821461, -0.0017554362, 0.0013089589, -0.04364058, -0.033413883, -0.021206036, 0.023558484, 0.028128264, -0.0015618267, -0.0010175565, 0.017971471, -0.03393349, -0.024992164, 0.0055431197, -0.012809337, -0.035877712, -0.029575245, -0.054831482, -0.03613769, -0.040379312, -0.021822795, 0.02292647, -0.0132422745, -0.02438698, -0.051580332, -0.029373437, -0.031701684, -0.013849745, 0.0024622632, 0.013264032, 0.029347759, -0.021384543, 0.012739036, -0.009968353, 0.028395217, -0.0012962854, 0.023203501, 0.00051309064, 0.014438142, -0.00060531293, -0.03766756, 0.019566346, -0.03742511, -0.025847178, -0.043827485, -0.03994038, -0.00892472, -0.0015415099, 0.015940078, 0.020474693, -0.028747162, -0.022996148, -0.025539076, -0.039005782, 0.01832768, -0.010832878, -0.02100371, -0.0027242422, -0.02126427, 0.022585303, -0.0025252115, 0.024609799, -0.0053106234, -0.0018771653, 0.02213019, 0.044444095, 0.009730582, 0.008830167, 0.009413398, -0.03797041, 0.022000557, -0.0354965, -0.015700145, 0.0133470455, -0.006239873, -0.00018797515, -0.019637918, 0.027735319, -0.0076186005, -0.026143989, -0.023916362, -0.028566945, -0.030283337, 0.017366001, -0.00085096405, 0.004873444, 0.0077897646, 0.00051310746, 0.030579187, -0.027413845, 0.024280997, -0.00832865, 0.008730079, 0.016487813, -0.016166324, -0.013522203, -0.009228522, 0.011886001, -0.03484532, -0.01868747, 0.016146926, 0.028586831, -0.017800326, -0.015661744, 0.020689903, -0.010524838, -0.025191192, -0.04057334, -0.023465492, -0.011227471, 0.000855248, -0.025040425, -0.010417896, -0.018355548, 0.025268767, 0.021437537, 0.026751075, 0.020675544, 0.0068337233, 0.013019068, -0.022453384, -0.0076762615, 0.025014665, 0.0230802, -0.033945467, -0.007611154, -0.025495712, -0.008634001, 0.007986165, 0.0075984225, -0.030477189, -0.042769928, -0.014475188, -0.02904767, -0.032597538, -0.01586344, 0.01745213, -0.032832257, -0.003772179, -0.028713318, -0.0061228853, 0.015759317, 0.033193372, 0.008529099, 0.022756021, 0.026866091, -0.013968068, 0.01491972, -0.0069847046, 0.040193513, -0.023545051, -0.028233018, 0.0058695707, 0.044432882, 0.0018227696, 0.026373833, 0.013528738, -0.02696688, 0.020279925, -0.014361137, 0.037937123, 0.021292875, -0.0073587885, 0.027252937, 0.025990078, -0.014893479, 0.027199704, -0.009939355, 0.013116161, 0.02812898, 0.030638274, 0.024867175, -0.004867798, 0.0491161, 0.030648565, 0.05805367, 0.05923644, -0.0028303452, -0.0072129373, 0.004590355, 0.04079463, -0.005561838, -0.03297613, -0.04105905, 0.008060599, -0.027006418, 0.024897309, 0.01619984, 0.007909631, -0.0016503445, 0.02489572, 0.041985475, 0.042985145, 0.029482013, -0.0037655649, 0.022560067, -0.03090792, 0.013643128, 0.03533572, 0.012721756, 0.0027232526, 0.0010027544, 0.014960692, 0.028261485, 0.027491245, 0.041985486, -0.002864308, 0.04631607, 0.0042146826, 0.0046406677, 0.037608936, 0.007095596, -0.018023206, 0.032511067, 0.026292335, 0.026084306, -0.008322587, -0.0038349475, -0.014002239, -0.006281024, 0.049454443, 0.016319146, -0.009265077, 0.008149184, -0.025776107, 0.035662588, 0.024874957, -0.027192067, -0.025204921, 0.013643592, 0.026329905, 0.017974053, 0.036052503, 0.0055726385, 0.006773282, 0.007538094, 0.020968901, -0.026181584, 0.034663428, 0.008850489, 0.0015481206, 0.024110483, 0.023414802, -0.025662847, 0.020890895, -0.0016871425, -0.025701031, 0.0017686769, -0.02016425,
    0.008988664, -0.043741584, -0.022553042, -0.03216665, -0.016124085, -0.010177855, -0.02442296, 0.029406622, -0.031541508, 0.0014529083, 0.005947623, 0.0028899845, 0.003820922, -0.027612584, -0.035146426, 0.014815287, -0.00550076, 0.023924233, 0.0045103976, -0.024337094, -0.035558067, 0.008321259, -0.0024752477, 0.011554794, 0.022947988, -0.02249904, 0.015232844, -0.03196952, 0.00048930175, 0.03127658, -0.022180907, -0.030363636, -0.026009513, -0.018279143, -0.018326223, 0.038358357, 0.024964137, -0.017788079, -0.010480437, -0.0018733927, 0.009264066, -0.03916812, -0.020667149, 0.026271572, 0.015126133, -0.014755929, -0.016647093, 0.019356495, 0.02756681, -0.022587713, 0.0020940935, -0.036495544, 0.015593675, -0.019676428, -0.04477528, -0.009315648, -0.017824868, 0.011488218, -0.03461919, 0.015067747, 0.034537256, 0.022032736, 0.050585672, 0.042886928, 0.060751345, 0.01690664, 0.024960889, 0.019194346, 0.048992, 0.0019012574, 0.02115341, 0.009865664, 0.0024366577, -0.020296277, 0.03996038, 0.005307802, -0.022440547, 0.0064111496, -0.025321836, -0.025550019, -0.0053062076, 0.00058654347, 0.014329768, 0.0035046106, 0.021307841, -0.04333482, -0.025068326, -0.018567529, 0.014231112, -0.039881688, -0.004151519, 0.0022647444, -0.009982132, 0.018434437, -0.024017364, 0.0032448315, -0.008299306, -0.03415777, 0.02966214, -0.017303089, 0.024560472, 0.03003908, -0.011766603, -0.001717217, -0.01516509, 0.0002526084, 0.004912372, -0.02814419, -0.016498087, 0.018853925, -0.033463243, 0.012714206, -0.045112018, -0.05904329, -0.016415436, -0.025810646, -0.057556305, -0.029178783, -0.038502965, -0.0047329147, -0.041799992, -0.020191334, -0.0044900407, 0.006956656, -0.013809299, -0.0074445014, -0.030286029, 0.0005231737, -0.033931013, -0.039518088, -0.039401665, -0.027683742, 0.01273062, 0.0123502575, -0.015103431, -0.023582347, 0.023316888, -0.017923545, 0.024369475, -0.010536708, -0.049274344, -0.005524117, -0.05477145, -0.009996469, -0.011083134, -0.0017131949, -0.0009702901, -0.06460866, -0.03002258, -0.04426298, -0.04563196, 0.01989337, -0.032817557, 0.011503777, -0.015908256, 0.006714274, -0.036118347, 0.015192424, -0.0078162765, -0.0241148, -0.036265433, -0.044192277, -0.006289032, 0.00089121494, -0.046759363, -0.033989463, 0.02713442, -0.022509076, -0.05011266, -0.008462258, -0.07534722, -0.022807077, -0.045615602, -0.027444389, -0.010142503, -0.05108395, -0.036836512, 0.011024665, 0.005160289, 0.011858231, -0.02312858, -0.023557097, 0.00016114688, -0.019858418, -0.0071900967, 0.022189207, -0.036590368, 2.7970764e-05, -0.015698675, -0.03455221, -0.045631737, -0.060546156, -0.054748483, -0.006432703, -0.042023446, -0.017724562, -0.022448782, -0.0414651, -0.07368283, -0.022893569, -0.051469423, -0.00081513333, -0.053244818, -0.037691496, -0.049580257, -0.0226986, -0.018032795, -0.031268913, -0.031265184, -0.057831686, -0.0019835024, -0.030925676, -0.04231536, -0.017404146, 0.030243924, -0.033798628, -0.04557232, -0.026290586, -0.007833383, -0.023454746, -0.039422955, -0.03735051, -0.008394589, 0.0069501856, -0.035633225, 3.2586813e-05, -0.07037486, -0.004405997, -0.010641211, -0.03647099, -0.01661693, -0.048089013, -0.043251183, -0.016316354, 0.011591629, 0.018813275, 0.0044173207, -0.06250642, -0.041947167, -0.03816587, -0.015775897, -0.0010394019, -0.034136266, -0.051098213, -0.042638347, -0.017109334, -0.03240755, -0.009276651, -0.026849193, -0.028076127, -0.014028305, 0.011709085, -0.040141102, -0.055151064, -0.029970875, -0.0017973435, -0.05653965, -0.029214608, -0.06924848, -0.027790377, -0.01964637, -0.04279273, 0.017763646, -0.03447116, -0.012117554, -0.0039572245, -0.01920148, -0.041101698, -0.01321251, -0.023266612, -0.01904416, -0.008933137, -0.048722077, -0.02485836, -0.030335147, -0.011656074, -0.05007825, -0.04630291, -0.0062256535, 0.02239378, -0.0010704958, 0.007412116, -0.056615803, -0.034535788, -0.04472166, -0.032652892, -0.07130303, -0.008024807, -0.022820689, -0.045790806, -0.06589648, -0.017680641, -0.048002545, -0.01575221, 0.00080882444, 0.0005287252, -0.020427784, -0.007417706, 0.007898498, -0.009110221, -0.051288996, -0.010665611, -0.036186047, -0.023443457, -0.049862385, -0.0070413514, -0.029696168, -0.019509472, -0.020722883, -0.0006651354, 0.006295838, -0.026779994, -0.052286863, -0.012629226, -0.015305193, -0.005937268, -0.068146475, -0.053809904, -0.046111442, -0.06057292, -0.05550478, 0.022095133, 0.03926039, -0.0077072093, -0.026751293, 0.0054762615, -0.04622744, 0.020861901, -0.045323867, -0.05250782, -0.04249601, 0.002967404, -0.013679377, -0.040975817, -0.010274791, 0.020044148, -0.013265274, 0.04918808, 0.007946072, 0.02128563, -0.028352486, -0.05807658, -0.04113269, -0.0045740525, -0.028425317, -0.048999578, -0.022028882, 0.00047415937, 0.008504938, 0.03133182, 0.010239518, 0.017944196, -0.026781015, -0.012302909, -0.005886507, 0.01634294, 0.007846544, -0.014626684, 0.03102666, -0.019953663, -0.012988551, -0.044580035, -0.021162208, -0.008353705, 0.01633366, -0.0028308239, 0.019330142, -0.028328, -0.0017597879, -0.04318976, 0.010852318, -0.046466406, -0.05216919, -0.040295564, -0.013706447, -0.0131604625, -0.017613292, 0.0006128266, 0.0088928, -0.036027975, 0.031223305, 0.0015379767, 0.023858028, 0.019542715, 0.040309045, 0.049609385, 0.015004814, 0.013415809, -0.053674217, -0.023456251, -0.047087666, -0.0065980856, 0.005025725, 0.0103605455, 0.04488719, -0.010448685, -0.03620798, -0.0049732714, -0.036183782, 0.019457638, 0.028555652, -0.029013054, 0.0127219055, -0.050290152, -0.04662523, 0.0013662523, -0.03669854, -0.04450433, -0.012951141, -0.014391531, 0.022139743, 0.028225215, 0.012502819, 0.033268664, 0.021852234, 0.024880176, -0.0063419486, 0.008200966, -0.016956847, -0.012117581, 0.022624793, 0.018699603, 0.02737385, 0.035957344, -0.009983384, 0.020961098, -0.007077831, 0.030360503, -0.015176579, -0.02724101, -0.013493217, -0.049362298, -0.0425158, -0.028841456, 0.004727969, -0.0023268412, -0.02408614, -0.030991437, -0.026251411, 0.005565116, -0.006992536, 0.005394039, 0.030979447, 0.007875195, -0.025790544, -0.022319602, -0.03354256, -0.0011376876, -0.00078201486, 0.016672565, 0.019202597, 0.03576034, 0.00593203, 0.03398669, 0.009326669, -0.013949007, -0.0019983759, 0.013195692, -0.0055188313, -0.066677496, -0.03299327, 0.007183592, -0.0066031027, 0.00541121, -0.030039763, -0.024706837, -0.015570594, -0.031058561, 0.02712358, -0.040188372, -0.01649755, 0.0031096514, -0.010157557, 0.0019448935, 0.024975087, 0.04314239, 0.013192012, 0.045724194, 0.022975504, -0.008488279, 0.0067013605, -0.026989246, 0.0061107506, -0.044982202, -0.030760938, 0.0106349485, -0.031683877, -0.006958977, -0.026382254, -0.020680755, 0.017875092, -0.032652617, -0.013986306, 0.012269158, -0.03382091, -0.0014629532, -0.002214987, 0.020849125, -0.03083132, 0.015434726, -0.0050834664, -0.013052523, 0.008702048, 0.04650565, 0.04778533, 0.054349437, 0.010462618, 0.0071195313, -0.009824599, 0.03744884, 0.017761055, -0.017375564, -0.042801086, -0.0006483144, -0.031709958, -0.01679617, -0.020767862, 0.01891611, 0.018079026, 0.020900045, 0.004875288, 0.025536109, -0.0001955943, -9.869903e-05, -0.035605475, -0.019860813, -0.051823344, -0.009627112, -0.036553267, -0.01912779, 0.014662617, 0.023658542, 0.009578526, -0.0039610346, 0.024187004, 0.018797033, -0.013337935, -0.0034125634, -0.036427062, -0.044872347, 0.0048168516, -0.01874698, -0.02737285, -0.02661218, -0.001359729, -0.008072322, -0.011268887, -0.003120152, 0.0077297557, -0.017421732, 0.033007544, 0.0075365705, -0.008849812, 0.015685031, -0.038080696, -0.02772386, -0.07245435, -0.020987516, 0.030253418, 0.02766644, 0.008507197, -0.013546599, 0.013737034, 0.033140436, 0.010278613, 0.016979525, 0.013598947, 0.014776781, -0.021639142, -0.014572076, -0.024506835, -0.023995306, 0.02057451, -0.028005986, -0.019842671, -0.011656445, -0.021314729, 0.02686138, -0.0067008347, 0.016798628, -0.02596139, -0.025632767, -0.04070314, -0.043629836, -0.01856368, -0.058512278, -0.004648391, -0.007883445, 0.023124853, 0.044316214, 0.003516131, 0.031939592, -0.0032125912, -0.0016992142, -0.017564317, -0.008334217, -0.012711479, -0.0008102078, -0.016401228, 0.0011191797, 0.014100114, 0.0039746617, 0.0070094597, -0.03577297, -0.01624821, 0.0039171465, 0.028198292, -0.01890176, -0.035429038, -0.015940653, -0.014692362, 0.014585071, 0.019013666, -0.00627908, -0.012224318, -0.035310894, -0.043524083, 0.030744605, 0.020284496, -0.009078213, -0.008824983, 0.033157587, 0.033383682, 0.031237, -0.014945459, 0.018611286, 0.021135591, -0.0031034958, -0.03852684, 0.009851838, 0.010737424, -0.033922937, -0.035038523, -0.0033767163, -0.003345297, -0.02642996, 0.009766839, -0.011329797, -0.020875368, 0.043658637, 0.05420164, -0.0059483056, 0.0008391964, -0.012517847, -0.015008979, 0.02200023, -0.015573499, 0.007872249, 0.019406758, 0.05324233, 0.045040045, 0.039597735, 0.021558315, 0.0043434803, -0.012878496, -0.016361125, -0.034045752, 0.005992611, -0.016229711, -0.020217653, 0.022886448, -0.02265505, 0.021970354, -0.01752856, -0.015455759, 0.043332886, 0.040485576, 0.036026597, 0.044907372, 0.041307, -0.032739934, 6.630919e-05, 0.018963063, 0.0032955622, -0.018315483, 0.043087747, 0.055433586, 0.040568516, 0.052350793, -0.010074159, 0.02035245, -0.0011620825, 0.009561255, -0.033471715, -0.022703873, -0.0039205803, 0.022638522, -0.03306835, 0.028456891, 0.017012026, -0.01740613, -0.0031980623, -0.0089879995, 0.010897578, -0.0120452205, 0.04894409, 0.01236884, -0.012886564, -0.014847653, 0.006765592, -0.04253703, -0.012529474, 0.006299828, -0.018937636, 0.042628646, 0.0011190339, 0.022957454, 0.03472735, -0.015456754, -0.023018792, 0.03035321, 0.041140277, 0.025322968, 0.028074639, -0.0053796065, 0.021594618, 0.021814603, -0.0041570324, 0.05594909, 0.050647117, 0.03881545, 0.024311738, 0.013610464, 0.013475169, -0.0007540376, -0.056812726, -0.01701269, -0.046072748, -0.019278767, -0.017708747, -0.015368294, 0.01596623, 0.01370849, -0.011583581, -0.029005293, 0.016654167, 0.0037110597, 0.01564757, -0.003765001, -0.0024077217, -0.015663078, -0.0009081943, 0.036058888, 0.037726253, 0.030110763, 4.5267785e-05, 0.001695906, 0.04961328, 0.005276169, 0.038976792, -0.032517444, -0.019254815, -0.016224101, -0.01402571, -0.015753988, -0.0580486, -0.027251301, -0.00611798, 0.025370616, 0.013571533, 0.00025970043, -0.04422998, 0.005135211, -0.026790097, 0.016120154, -0.0054473197, 0.042389605, 0.028126383, 0.04406725, 0.04353608, 0.030621238, -0.015063031, 0.015164178, -0.010306976, 0.02972818, 0.031255435, 0.03711755, -0.046730515, -0.0016139775, -0.04642532, -0.0034792023, 0.0019476524, -0.027638907, -0.0065550883,
    -0.028917493, -0.028956918, -0.012679687, -0.030889595, -0.011767563, -0.0351783, -0.017568734, 0.0020341948, -0.0108230915, 0.020327888, 0.0116639305, -0.0027369095, 0.04757845, -0.030591926, 0.0020485448, -0.012223935, -0.036611483, -0.012443521, 0.0004041157, -0.01596409, -0.011667539, 0.006999985, -0.0430766, -0.022856973, 0.019758223, -0.04153453, -0.019265153, -0.0016917358, 0.0112468805, -0.015656274, -0.026168717, -0.03506438, 0.0030626731, 0.0063458732, 0.03055582, 0.017228847, 0.018252445, 0.02314431, 0.03925106, 0.030527893, -0.015339093, 0.043500137, -0.00059058284, 0.0024554192, -0.009681765, 0.019603878, 0.0142209865, 0.015873136, 0.025603652, -0.009562818, -0.013244778, -0.021439794, -0.03405663, -0.04246996, -0.03728345, -0.031981025, 0.0031206731, -0.0075854133, -0.0106593855, -0.0061814706, 0.024316931, -0.0016074018, -0.011313878, -0.06498599, -0.030214122, -0.008557088, -0.031231618, -0.027210284, -0.05634888, -0.06219399, -0.031508174, -0.03716514, -0.03164317, -0.02189229, -0.007498104, -0.019049985, 0.011534691, -0.02809104, 0.014330853, 0.029349936, 0.002745828, -0.028907444, 0.020266786, 0.021913253, -0.009610395, 0.03323113, 0.030402951, 0.00894194, 0.013537484, 0.03872825, 0.0035361035, -0.041589662, -0.04360319, -0.025762992, -0.03935989, -0.033171833, 0.009117354, 0.0042730668, -0.003829046, -0.017325139, -0.04857714, 0.003911982, -0.024598664, 0.02409996, 0.042428557, -0.033506356, 0.015193056, -0.03735531, -0.034166057, 0.015138005, -0.00036840598, -0.019754121, -0.0055288924, 0.0072732423, 0.027953355, 0.075927004, 0.033856824, 0.038259894, -0.01449654, 0.038949884, 0.024880415, -0.039951377, 0.010935241, -0.040248644, -0.041816194, -0.026575, 0.013392387, -0.05528658, -0.027898803, -0.036771864, -0.020901326, 0.0217083, -0.00878109, -0.0005754059, 0.026186546, 0.0009191216, -0.04108268, -0.015232519, 0.023450954, -0.019243987, -0.016748143, 0.02514572, 0.046724577, 0.00675341, 0.06562044, 0.048085604, 0.036886975, 0.042848162, -0.0045951414, 0.028499074, -0.034709286, -0.04123824, -0.014113943, -0.041134465, 0.0030210624, -0.05359683, -0.008818398, -0.032945238, 0.028653467, 0.0137412185, -0.014146751, 0.017691068, -0.026708134, -0.027345374, 0.01618651, -0.0064080213, 0.015596869, -0.030281166, -0.0035332786, 0.00067210203, 0.047575876, 0.03199466, 0.0041493415, 0.011592563, 0.03955104, 0.036689125, -0.023767862, -0.010692132, -0.0020494096, -0.046571173, 0.0125430785, 0.025506912, 0.013059149, -0.011964263, 0.0005520951, -0.029773409, -0.01769455, 0.010564004, -0.01072051, -0.01722959, -0.013524447, -0.02937233, -0.0050081476, -0.0369318, -0.027699016, 0.009029475, 0.031218216, 0.016367247, 0.021211302, 0.030152211, 0.0579518, 0.028152976, -0.0066493303, 0.024693346, 0.015060969, -0.03944869, -0.044612933, -0.04863087, -0.02579402, -0.004101006, 0.023794744, -0.021416962, 0.005538193, 0.003474376, -0.0324261, -0.023114568, 0.010199188, 0.012501819, 0.009611463, 0.021430967, 0.020531423, -0.03265625, -0.0033576766, -0.0082472535, 0.007374727, 0.010435867, 0.06073569, 0.045592617, 0.054886617, 0.031849153, 0.020486547, 0.026377289, -0.018761791, -0.044725765, 0.0023224044, -0.027266057, -0.0030805054, -0.020475863, -0.033741098, 0.0061950064, -0.011118294, 0.019733766, 0.030371394, 0.029608075, 0.006193551, -0.04485748, 0.021750186, 0.019952528, -0.036282454, -0.0004747328, -0.017596532, -0.019612614, 0.020231327, 0.013489805, 0.0063120495, 0.054643407, 0.008598526, 0.05849467, -0.017677352, -0.013766465, 0.028043147, -0.010125156, 0.031992562, -0.032012593, 0.024827072, 0.005810384, 0.026746947, -0.0056973267, 0.003865844, 0.046647727, 0.0020910136, 0.016242031, 0.025137462, 0.007808575, 0.003295169, 0.0030288782, -0.016019966, -0.029583879, -0.05768473, -0.007970342, -0.025821177, -0.033494934, 0.008065004, 0.0025607154, 0.0395389, 0.03110304, -0.003984815, 0.054740116, 0.016750028, 0.006902034, 0.010355873, 0.02383476, 0.043086518, -0.030781226, 0.0064417166, 0.01662356, 0.013372027, 0.0206653, 0.033870213, 0.008851512, 0.014855719, 0.005640471, -0.016024798, -0.014700808, -0.009020549, -0.01903886, -0.015258805, -0.03868241, 0.015900888, -0.03633583, 0.006556978, 0.030488621, 0.015262018, 0.019628776, 0.02413441, 0.0013367911, 0.051188327, -0.009071579, 0.03094704, 0.044966884, 0.0048260787, -0.012865293, -0.019754438, 0.01265962, 0.012704615, 0.004656745, 0.01286163, -0.018023489, 0.023036135, 0.016999243, -0.033469487, -0.019431764, -0.043704618, -1.3532681e-05, -0.004311333, -0.010236134, -0.03702597, -0.023617176, -0.0034387554, 0.006431669, -0.01599467, 0.018196097, -0.010684961, 0.006950721, -0.010860075, -0.00041637692, 0.015891835, 0.030629994, -0.019827353, -0.03672971, -0.0017912675, -0.023350235, -0.01627506, 0.00043363136, -0.009842222, -0.017163701, 0.02442575, -0.017557045, -0.04550563, 0.024441171, -0.013211962, 0.009529463, -0.021576032, -0.008195133, 0.001385101, -0.0003757433, -0.012204246, -0.006070249, -0.0035052614, 0.007275831, -0.00028975363, -0.0020887314, -0.012824136, -0.00872754, -0.027850853, -0.003905603, 0.03321526, -0.009523847, 0.022190344, -0.025954263, -0.006219494, 0.018486818, -0.029250344, 0.0036742203, -0.024553783, 0.027250284, 0.009508732, 0.0058403835, -0.015426432, 0.018501883, -0.030018099, -0.009349712, -0.018303834, 0.005401687, 0.016955484, -0.03296318, 0.0008283779, 0.011724289, -0.049004104, -0.032417122, -0.01759082, 0.003813859, -0.019023113, 0.04865366, 0.038883857, 0.05595335, 0.061493713, 0.0171626, 0.011855867, -0.018312853, -0.011800863, -0.00028076247, -0.037638333, -0.012580665, 0.031193556, 0.005271945, 0.03651622, -0.015681595, 0.0216148, -0.027114635, -0.02232919, -0.0009354366, -0.0098093795, 0.016184617, -0.0489239, -0.008602854, -0.010049062, -0.019542746, -0.019551836, 0.012644104, 0.045756705, 0.058668144, 0.019881533, 0.009284168, 0.01206925, 0.042995628, 0.03421048, -0.010576666, -0.004491748, -0.011779253, 0.0039094877, 0.020376056, -0.035097174, -0.02779607, 0.02222459, 0.030077893, 0.011666351, -0.011090307, -0.043142483, -0.019711947, -0.009118002, -0.047643624, -0.053788356, -0.010748931, 0.0009359311, -0.009422703, -0.002240143, 0.036534205, 0.059824873, 0.02869838, 0.024982998, 0.0067574005, 0.00045510623, -0.02409011, 0.03554957, 0.02875028, 0.00085095357, 0.012048678, 0.007574216, 0.0027856494, 0.0381009, 0.020032618, 0.00470912, -0.03965618, -0.03962382, -0.03516658, -0.025621481, -0.055016447, -0.030678013, -0.047069836, -0.03513676, -0.001071758, -0.0077297264, 0.022903495, 0.063084394, 0.038953684, 0.015568029, 0.020417575, 0.035934612, -0.009370755, -0.040738214, -0.044440567, 0.011334881, -0.003606758, -0.020360848, 0.049836684, -0.018852916, 0.00664846, 0.034620814, 0.021483995, -0.0101407785, -0.01991309, -0.04297061, 0.0010318576, -0.019094028, 0.00076685514, -0.015723264, -0.015885042, -0.04385356, -0.011351036, 0.048446488, 0.045273684, 0.042160556, 0.06814137, 0.047168378, -0.016941227, -0.013267407, -0.0211053, 0.017741034, 0.0055545843, -0.011745014, -0.0026537513, -0.022665719, 0.036112063, 0.004256264, 0.027936159, 0.024930542, 0.017823705, -0.016098041, -0.004298734, -0.025768135, -0.03397408, -0.03475037, -0.0046774456, -0.015299685, 0.015104648, -0.024291586, 0.0018053824, 0.008587669, 0.00590872, 0.05512244, -0.013081313, -0.014270039, 0.014372896, -0.031013252, -0.008792576, -0.0020159963, -0.041057974, -0.012997173, -0.030892257, 0.0041373936, 0.032961816, 0.009047369, 0.00058296067, -0.019309685, 0.03357903, 0.055123795, 0.07002089, 0.032323074, -0.009733115, -0.025705848, 0.021111734, -0.037063297, -0.035411097, -0.021303415, 0.03897998, -0.016920084, 0.0346861, 0.00889667, -0.015105982, -0.019889561, -0.035950243, -0.04710733, -0.021340312, -0.04436462, 0.019963281, -0.03738257, -0.03075824, 0.019826137, 0.009297139, -0.00831123, -0.004396209, 0.013353817, -0.0029650875, 0.06283303, 0.04824631, 0.036777705, -0.022178805, 0.0022246055, 0.012495055, -0.016889127, -0.012731288, 0.013516471, -2.749934e-05, 0.039049014, -0.0050286003, 0.029621178, 0.021968173, 0.020082882, -0.030551758, -0.015345235, 0.008252411, -0.008339513, -0.0034811066, -0.046396554, 0.024703104, 0.021979589, 0.010085566, 0.025539054, -0.012896326, 0.02521235, 0.026198315, 0.032760333, 0.05003249, -0.016600842, 0.028723305, -0.013991606, -0.038278036, -0.016854122, 0.019717915, -0.04655622, -0.043801013, -0.0421316, -0.04263566, -0.0046382914, -0.027581112, -0.024406519, -0.010254307, 0.0130045, -0.011322682, -0.022918189, -0.0033528162, -0.020831183, 0.001420534, -0.0022558074, -0.0041635986, 0.015444839, 0.008694536, 0.021563223, -0.03113893, 0.039564878, -0.017284365, 0.038882025, -0.033146456, -0.027998654, -0.038954403, 0.012472757, 0.005531972, -0.04550915, 0.0018111777, 0.013801381, 0.005414218, 0.022505345, -0.04112057, -0.0482311, -0.008667548, -0.046102878, -0.050078467, 0.0015837629, -0.03371861, -0.013074207, 1.8727298e-05, -0.030130137, -0.014788816, -0.01163267, 0.016347164, -0.0003811602, -0.022336174, -0.008973716, -0.039033845, -0.022822713, -0.028192878, -0.032984592, 0.015981494, -0.019402046, -0.038894612, 0.01081805, 0.013850762, -0.020873796, 0.012678568, -0.010234226, 0.0071149035, -0.009745403, -0.044318814, -0.0097037, -0.052601837, 0.018625958, -0.0056846635, -0.03968188, -0.010873664, 0.013735888, -0.038835954, -0.010027024, -0.009107646, 0.012791155, -0.016471984, -0.04296448, 0.014160514, 0.045609187, 0.019355485, 0.0040796297, -0.010544064, 0.011004681, 0.00858561, -0.028466249, -0.044258483, 0.006576828, -0.05072902, 0.0084330905, -0.038957525, -0.0072916895, -0.036177132, -0.039710823, -0.054862455, -0.029399727, 0.010294547, -0.032218598, -0.028785195, -0.016820252, -0.02921546, -0.040474296, -0.014179765, 0.018355314, -0.03040738, 0.026401343, -0.027069997, -0.00033789538, 0.030616064, 0.00816583, -0.008952329, -0.035362042, -0.026133971, -0.004613141, -0.043531988, 0.008565267, -0.046741467, -0.011254571, -0.009249056, 0.023447353, -0.032207236, -0.0036423337, 0.010516407, -0.0019478567, -0.035146225, -0.006909968, -0.02986798, 0.0114076, -0.041930582, 0.018950619, -0.02130894, -0.021911912, 0.01754139, 0.023091001, 0.014716453, -0.004870898, 0.014670796, -0.005781827, -0.05694712, -0.0072515253, -0.013647283, 0.008621621, -0.013387866, 0.0021048174, -0.03594586, -0.05910694, -0.031027095, -0.055305928, -0.003915108, -0.02549237, -0.025597747, 0.037441216, -0.008596682, -0.02170667, 0.022132333, 0.025027795, 0.023727637, -0.017849023, 0.019084472, -0.039052535, -0.0042102104, -0.024746142, 0.01696707, -0.03792667, -0.0046664122,
    -0.026170706, -0.06130071, -0.019422278, 0.010332327, -0.023308147, -0.03387108, -0.07220089, -0.034196097, -0.060442697, 0.0075115296, 0.011982472, -0.034946702, -0.0069332076, -0.010810985, -0.023645056, -0.0012083398, 0.02578466, -0.02766964, -0.0074893287, 0.0033311504, -0.02376627, -0.008257969, 0.021823315, 0.017759578, -0.03755121, -0.05089488, -0.006285338, 0.005785407, 0.004843626, -0.021554034, -0.013091211, -0.037801355, -0.05848929, -0.038547616, -0.036214367, -0.0011304651, 0.0033936617, -0.059300393, -0.023682421, -0.01631865, 0.009702122, -0.00030315903, -0.0051467256, -0.033994094, -0.029227972, -0.02510101, -0.013768341, 0.0071902084, -0.0065296567, -0.04594269, -0.031066291, -0.018066581, -0.040952545, -0.003769709, -0.029600054, 0.0030433764, -0.028970543, -0.04470001, -0.02357115, -0.060768023, -0.009241818, -0.0007043781, -0.051081866, -0.055809133, -0.054144774, 0.0013517354, -0.01702319, 0.0021371501, -0.01334183, -0.024222746, 0.012662055, -0.01536809, -0.009491787, -0.0049356516, 0.010677037, -0.013821551, -0.03883635, -0.017488455, 0.011370773, -0.025304154, 0.01372795, -0.016380541, 0.011377561, -0.026364867, -0.01489477, -0.03526022, -0.026903462, -0.01892648, -0.02959815, 0.0065051806, -0.05312066, -0.054545466, -0.04631507, 0.0049035638, -0.043042623, -0.0039354716, 0.034700893, 8.733184e-05, -0.0075099054, -0.020246409, 0.025973406, -0.013942564, 0.014417425, -0.045260567, -0.015614594, -0.016512264, -0.021858636, 0.0016114215, -0.03170547, -0.039055936, -0.01655316, 0.019733887, -0.04269327, 0.002776956, -0.0072901975, -0.013554851, -0.027775131, -0.006515883, 0.019570945, -0.03687226, -0.038748194, -0.04009306, -0.018350622, -0.0036408855, 0.042532798, 0.01928884, 0.017375242, 0.009455841, -0.0145687945, 0.01670709, 0.011592769, -0.018344034, 0.015408041, -0.0021060775, -0.038433164, 0.024146618, -0.032437645, -0.040702954, 0.015764514, -0.017409176, -0.02290359, -0.03368709, -0.0349419, 0.0024323394, 0.013462517, -0.026044285, 0.011509468, 0.0065693487, 0.0062971287, -0.026599193, 0.033092663, 0.027841358, -0.010453279, 0.050336704, 0.010719458, -0.010717183, 0.015105331, -0.016083678, -0.017531719, -0.015238457, 0.032532904, -0.01261268, -0.028540196, 0.021179931, 0.008085538, 0.018703956, -0.038599484, -0.0021258008, 0.01734167, -0.0059838225, -0.018693253, -0.033936415, -0.024513982, 0.018700918, 0.028940367, 0.031755652, 0.0423978, 0.014063304, 0.03416754, 0.011470234, 0.014679664, 0.007283241, 0.02924425, 0.030680496, -0.013532092, 0.010846546, 0.026014775, -0.018344577, 0.009488382, -0.035696223, 0.010124805, -0.042552564, -0.0054295515, -0.03910649, 0.005157819, -0.035068274, -0.011301845, 0.025483985, 0.004843262, 0.007889605, 0.043367695, -0.0034362276, 0.039771672, 0.0023110725, -0.016283885, -0.029005712, 0.021953695, -0.004421764, -0.010001681, -0.010922252, 0.0006310801, -0.0038825166, 0.022403063, -0.016821532, -0.016998503, 0.017322747, -0.039841637, -0.0016010486, -0.0011264025, -0.032779332, 0.0048922384, -0.030406287, -0.0063290643, 0.009995809, -0.019756226, 0.0044538057, 0.01761708, -0.0037321968, 0.014861637, 0.025141422, 0.015779123, 0.063460834, -0.019243142, -0.00070985715, 0.021289458, 0.0030672105, 0.042456254, 0.01239462, 0.030806895, -0.04096846, 0.012505751, 0.007189662, 0.028362677, -0.019402431, -0.011792044, -0.023160074, -0.03968024, 0.006419617, 0.005437096, 0.009031972, 0.021727562, -0.014705307, 0.013659586, 0.03892155, 0.00015275966, 0.006012366, 0.03011675, 0.076186575, 0.039432477, 0.03084147, 0.041984767, 0.03291134, 0.018628314, 0.027162734, 0.04208666, -0.023579275, -0.0076532653, -0.0117643, 0.01973138, 0.022102086, -0.015377913, -0.031048927, 0.0048538577, -0.027759321, -0.023852669, 0.016051523, 0.014459983, -0.027432581, 0.022665402, -0.02726472, -0.029936302, 0.022552522, 0.019354982, 0.019816179, 0.019382386, 0.040422853, 0.03108155, 0.003755507, 0.010609822, 0.018999742, -0.0090276105, -0.010879592, -0.016102426, 0.009718283, -0.013316981, 0.010896743, 0.031388137, -0.01802093, -0.039738856, -0.005710367, 0.004452355, -0.006726496, -0.020640163, 0.020768095, 0.03345202, 0.030877171, -0.014321832, 0.016394887, -0.0069991206, 0.033844844, 0.016042478, 0.07376638, 0.0055075535, -0.0012257162, -0.008475822, 0.036024198, -0.023687642, -0.027048936, -0.017635008, -0.02673139, 0.04065919, -0.035446994, -0.01935055, -0.020377625, 0.0043083257, 0.011179415, -0.036090065, 0.00019131126, -0.01982535, 0.030599121, 0.008273243, -0.013943063, -0.0033901904, -0.0140384715, 0.033314124, 0.0010135772, 0.044717427, 0.034365572, 0.013180224, 0.0583357, -0.0022422841, 0.05878116, 0.03061486, 0.030977167, -0.04324131, -0.048271615, 0.0057302234, 0.012077239, -0.020652883, -0.047802616, -0.052201305, -0.011047541, 0.013231324, -0.016819246, 0.028749079, -0.016579315, 0.018174883, -0.03225779, 0.008495429, -0.021861464, 0.04265305, 0.0028412095, 0.028936105, 0.022239659, 0.043912448, 0.006594745, 0.065764256, 0.058305245, 0.057798862, -0.00019234294, 0.0076849544, -0.0003686457, -0.039707765, -0.06242764, 0.0053767283, -0.0073260833, -0.035748288, -0.0013038719, -0.02014062, -0.033699192, -0.04475683, 0.009352604, -0.0034183117, -0.00982588, -0.016097995, 0.026506854, -0.014888625, -0.017870892, -0.022719495, -0.0028940432, -0.017339839, -0.01752248, 0.03795835, 0.03609206, -0.011521303, 0.048245296, 0.011199223, -0.027721096, 0.013353734, -0.012076485, -0.012536418, -0.00086534495, 0.0028309256, -0.045254096, -0.054386374, -0.033881187, -0.047998413, -0.058967408, -0.038468488, -0.048049085, 0.021255925, -0.024690991, 0.012062274, -0.013693447, -0.013776533, 0.029114135, -0.013113805, 0.03816588, -0.007338558, -0.017297817, 0.027593125, -0.0012827904, 0.04857275, 0.051830884, 0.017886082, 0.014202105, -0.025141926, -0.040878054, -0.007268831, -0.043421037, -0.005692983, -0.044738248, -0.014363753, -0.019922107, -0.059821974, -0.028144266, -0.032082047, -0.052973002, 0.0075919176, -0.02561274, 0.013847828, -0.022707596, 0.03949472, -0.01767466, -0.02207543, -0.018994914, -0.008139475, 0.011985776, 0.03188024, 0.037185036, 0.038770724, -0.00803601, -0.015072894, 0.021182496, -0.0016627552, -0.056114964, -0.061555993, -0.056942396, -0.028541392, -0.047530483, -0.017096628, -0.0073900595, -0.06072566, -0.06547826, -0.008645769, -0.031017596, -0.042972133, -0.019882722, -0.050559506, 0.017628819, 0.0043190084, -0.00033710996, -0.0016858086, 0.014966246, 0.011942152, -0.0019495145, 0.010852544, -0.028669067, -0.010889771, 0.036338918, -0.021164216, 0.015329921, 0.013088535, -0.046576522, -0.03848942, -0.0639835, -0.048689533, -0.042167228, 0.0054096617, -0.034513943, -0.014624732, -0.051415335, 0.0023198768, 0.013319412, -0.031032043, -0.03924399, 0.005220726, -0.0015532599, -0.047007542, 0.025635453, -0.00925539, -0.015569165, -0.0007329813, -0.06022536, 0.000121248515, -0.028064473, -0.0049008145, -0.024560714, -0.02978342, -0.03164179, 0.009855952, 0.011849175, -0.014732858, -0.052503396, -0.037294257, -0.03391765, 0.013470955, -0.045599688, -0.055581603, -0.0066181533, -0.004599077, 0.017730929, 0.021849498, -0.0016525347, -0.021828204, 0.010725943, 0.011452909, -0.024067456, 0.02185634, 0.020343646, -0.0017698561, -0.04439714, 0.019291455, -0.014995007, -0.035876185, -0.0039017398, 0.0008986473, -0.046780445, -0.020858608, -0.05457518, -0.055728067, 0.0029436976, 0.0026991842, 0.011890139, 0.0024879267, -0.014783368, -0.042255484, 0.0017501335, 0.013779298, -0.017080823, 0.0036741174, 0.027581187, -0.032548398, 0.011915841, -0.0077800546, 0.023885865, 0.013307028, -0.016464313, -0.01636638, -0.0013225096, -0.034299385, -0.035793446, -0.04264295, 0.0055008684, -0.04017154, -0.04253568, -0.0521489, 0.004279107, -0.043460038, -0.039154675, 0.0043135867, 0.0290636, 0.0344644, 0.015341917, 0.0072466643, 0.015481391, -0.019474078, 0.015304827, 0.0048963707, 0.022586709, 0.031217152, 0.0030939635, 0.021297213, 0.004559698, 0.037964623, -0.021657854, -0.0060723913, 0.01633364, -0.004536789, 0.0101419445, -0.046770886, -0.02226055, -0.043491874, -0.059856534, -0.014431602, -0.0733462, -0.014248217, -0.039086603, 0.0056818663, -0.015306347, -0.03522366, -0.025263755, -0.04646818, 0.019593459, 0.01236482, -0.02060304, -0.020791795, 0.0063526104, 0.019189019, -0.028114494, 0.043202896, 0.03687408, -0.02420239, -0.018209798, -0.026625292, -0.016193712, 0.0048436737, -0.011286382, 0.0036705902, -0.0050229887, -0.058581073, -0.050159674, -0.0565643, -0.022303872, -0.05835485, 0.005631007, -0.03662023, 0.02028248, -0.030698406, -0.05165493, -0.015995389, -0.019327441, 0.0024265433, 0.004712903, 0.0076519675, -0.010435696, -0.0071050613, 0.023563813, 0.027561473, 4.9245107e-05, 0.01829775, -0.02137821, -0.008738892, -0.018950865, -0.01578153, -0.0246518, -0.046277214, -0.043651275, -0.04042603, -0.052081782, -0.007994461, -0.0664027, -0.027124058, 0.009324232, -0.052915175, -0.00870141, -0.0016831144, -0.0018176866, 0.014374358, 0.012804399, 0.005389154, 0.03919084, -0.01717198, 0.0224417, -0.0033678473, 0.018801922, 0.007679473, 0.045859996, -0.023351774, -0.027988119, -0.008488037, -0.04059854, -0.01648129, -0.033878997, -0.005216327, -0.04401643, -0.019254657, -0.048944518, -0.024596596, -0.028575584, -0.05583386, -0.03270468, -0.036231656, -0.016754894, 0.0019703303, -0.02859638, -0.01908627, -0.011202772, 0.029647222, 0.035389066, 0.032242727, -0.009168949, 0.022149315, -0.01292466, 0.02324293, 0.0055852635, -0.033021383, 0.025008682, -0.030787682, -0.017212419, 0.006555924, -0.056751627, -0.008822608, 0.01100006, -0.0092501175, 0.011221299, -0.05153535, -0.054406412, -0.02781733, -0.029509142, 0.010721048, -0.037216578, -0.009361223, -0.01793772, 0.0367023, 0.0046003726, 0.022257112, 0.0039022942, -0.021620993, -0.02068195, -0.02944488, 0.02196639, -0.02436612, 0.008576142, -0.020213202, 0.018606475, 0.0013494589, 0.044271626, -0.054894842, -0.0054027503, -0.007317955, 0.026753644, 0.033923823, 0.00786067, -0.011035274, -0.032283057, 0.023811031, -0.01598089, -0.0069854544, 0.01584334, -0.009912525, -0.03879314, -0.029550936, 0.0084584085, -0.0020736083, -0.028346037, -0.032593723, -0.0071261837, 0.011899457, -0.03759709, -0.022120526, 0.027371962, 0.0038664741, -0.03586707, 0.04309162, -0.0027857064, -0.030465085, -0.024279336, 0.017002527, 0.019410312, 0.0077534253, 0.013755413, 0.021666719, 0.036599915, 0.024668582, -0.029055286, -0.028347021, -0.01735564, 0.017039297, -0.022102652, 0.0020440358, -0.019973269, -0.026474835, -0.0014407496, -0.009453028, -0.03268917, -0.022320982, -0.040758967, -0.025933133, -0.0029569925, 0.012742646, -0.012597782, 0.028794443, 0.04142841,
    -0.010162019, -0.0128080845, 0.004608088, 0.026498236, 0.042490833, 0.040519796, 0.04106405, 0.003414823, 0.029215364, 0.0039400994, -0.0049701724, -0.012886123, 0.010309521, -0.012845754, -0.042136203, -0.02515847, -0.04719952, -0.018868763, -0.007189002, 0.0006569048, -0.011870257, -0.039478824, -0.058131266, -0.05423972, -0.015857654, -0.029329984, -0.0313855, -0.033962782, 0.022689238, 0.0070808954, 0.046939667, 0.04581577, -0.0023988555, 0.03587571, -0.008130247, 0.0041093086, 0.020962495, 0.010849693, 0.0014589455, -0.023277834, 0.006870366, -0.040091783, -0.010671668, -0.026788395, -0.017189857, 0.00074307475, -0.00073905365, 0.010638879, -0.004360854, -0.015155879, -0.053561956, -0.023123117, -0.05173468, -0.0024182408, -0.025990048, -0.030151978, 0.012644648, -0.03299763, 0.04568632, 0.03954623, 0.0011953545, 0.015953649, 0.00441304, 0.028564546, 0.030053208, 0.034332506, 0.03665187, 0.0033663937, 0.042944547, 0.030704271, 0.041082263, 0.024775457, 0.021640033, -0.026087744, 0.018059036, -0.0149025675, -0.020648522, 0.009198795, 0.015328165, -0.035612147, -0.011445671, 0.0055064294, -0.0053606923, -0.041122567, -0.049979262, -0.0007465948, -0.022041565, -0.0143380705, -0.03829077, -0.01261114, 0.01599721, -0.03682933, 0.028132645, 0.014535304, -0.03651044, 0.00872485, -0.007074127, -0.030470483, -0.0109481085, -0.011362728, -0.019912982, -0.005778852, -0.018772468, 0.0032910535, 0.020166961, 0.030122716, -0.010515437, 0.033190552, -0.014906776, -0.0064717997, -0.017871942, -0.02342534, -0.05316474, 0.004357419, -0.002356083, 0.006324354, -0.016771194, -0.060943853, -0.029536402, -0.025788488, -0.04551009, -0.029295858, 0.00558214, -0.0065967552, -0.028484639, -0.0011026185, 0.0069415746, -0.010995476, -0.044434603, -0.024539484, -0.034290068, 0.015995115, 0.033916358, 0.049020063, 0.028548317, 0.034851525, 0.010934152, 0.031174732, -0.03556954, 0.006225166, 0.00822169, -0.047112375, -0.027576884, -0.0130344685, 0.0023153073, -0.031590488, -0.026705641, -0.06091623, -0.042417787, -0.033821497, 0.0054734093, -0.043546297, -0.035024893, -0.04693564, -0.03299745, -0.03028823, -0.03986602, 0.010505459, -0.039459914, 0.02308576, -0.011733493, 0.029658617, -0.0027014127, 0.020490624, 0.027136678, 0.002452347, 0.03950433, -0.048211474, -0.035018213, -0.039638504, -0.024156539, -0.035950523, -0.014216646, -0.035463426, -0.059027933, -0.046101704, -0.02818635, -0.0357344, -0.035731014, -0.008697993, -0.0017051327, -0.028811406, -0.03335823, -0.008539472, -0.04062297, 0.020378146, -0.008034706, -0.0066039814, 0.00408609, -0.011601281, 0.015941942, 0.005072776, -0.016935518, 0.03816542, 0.009786322, -0.034022156, -0.0049440316, -0.028037086, -0.007108587, -0.009789931, -0.062364697, -0.02010384, -0.05270226, -0.0014467342, -0.040613074, 0.01774109, 0.015916793, -0.050658487, -0.02730228, -0.044910923, -0.04139141, -0.0319838, 0.01621027, -0.0010717695, 0.011105144, -0.012217038, -0.012953571, -0.002666505, -0.028666878, 0.0034810165, 0.040342875, 0.010199077, 0.046043515, 0.02995818, -0.026214518, -0.04474115, -0.033161443, -0.051595125, -0.067124836, -0.015872996, -0.0472011, -0.05129521, -0.032295134, -0.056179818, -0.015733968, -0.016282238, -0.03383468, -0.0047735847, -0.003234, -0.037011623, 0.006124186, -0.03177038, -0.0107950475, 0.0014334295, -0.047088817, 0.0063308254, -0.05361847, -0.0073607326, 0.029625986, 0.040301807, -0.010856469, 0.030837556, -0.0076368656, -0.05727159, -0.047227345, -0.01348159, -0.026685964, -0.026799861, -0.055254422, -0.06305324, -0.02416388, -0.0024096405, -0.014248563, -0.00930283, -0.033341806, -0.04386124, -0.017338347, -0.01763868, -0.0071916953, -0.001464713, 0.018662242, -0.0026573832, -0.04159358, -0.0075535495, 0.0037763189, -0.049905073, -0.016329342, -0.017156368, -0.013297157, 0.019952146, 0.012953422, -0.028600236, -0.04383936, -0.0039900024, -3.1289368e-05, -0.05359478, -0.031396713, -0.058031183, -0.051044717, -0.07654918, -0.019072821, -0.023106746, -0.05479341, 0.0046301195, -0.034494337, -0.027386082, -0.0055326847, 0.00328401, -0.035981964, -0.021233525, -0.05695868, -0.042686325, -0.018482912, -0.018192574, -0.021056471, 0.039380178, 0.06052411, 0.035987034, -0.01274639, -0.0066880607, -0.05458142, -0.03314236, -0.042543873, 0.0021751795, -0.04508333, -0.064113416, -0.019273425, -0.06397364, -0.017083798, -0.015894575, -0.053961076, -0.032269944, -0.016627507, -0.008229136, -0.010391718, -0.01653628, -0.007937523, -0.0023236263, -0.044358626, -0.054805595, -0.039835032, -0.010805245, -0.016674478, 0.022849813, 0.06816854, 0.017644424, -0.020850714, -0.027223133, -0.0118311625, -0.015952805, -0.03687419, -0.05378411, -0.03639551, -0.024095451, -0.054417275, -0.031991985, -0.02179902, -0.051174723, -0.040061112, -0.037515108, -0.025356065, -0.017129611, -0.0027492996, -0.022251626, -0.00430661, -0.015272015, -0.0017842475, -0.0032497195, 0.0074565155, 0.00015431209, -0.031691004, 0.048319638, 0.011270869, 0.036155242, 0.01420376, -0.039321955, -0.03694499, 0.0018867708, -0.015315627, -0.056963954, -0.012514424, -0.002798405, -0.041766938, -0.0418667, -0.055859882, -0.043395538, -0.044233255, -0.042989187, -0.03674983, -0.041237418, -0.01458474, -0.025137534, 0.02466635, -0.027751336, 0.014063374, 0.014128007, 0.031593468, -0.017059794, -0.025886772, 0.046011947, 0.07416881, 0.009760392, -0.021300914, -0.0018701318, -0.029414829, -0.022932013, -0.0063028033, -0.04190873, -0.011757767, -0.05902511, -0.023100637, -0.053267967, -0.011864853, -0.013194169, -0.013286327, -0.055756066, -0.03982198, -0.033654265, -0.013214071, -0.024358863, -0.004213393, -0.0010022873, 0.031667482, 0.058624953, -0.0076206243, 0.005994929, 0.0152938515, 0.04722567, 0.028253328, 0.07310298, 0.017699728, 0.01137427, 0.02423867, -0.021260034, 0.004184371, -0.01157638, -0.057010762, -0.030456727, -0.024059512, -0.0041741985, -0.022804474, -0.057709508, -0.010276794, 0.001126644, 0.0030629078, -0.005268965, -0.016182406, 0.008375699, -0.029510295, 0.0064687408, 0.043045912, 0.039054208, 0.018277755, 0.014971751, 0.030578922, 0.037326075, 0.033495653, 0.047281824, -0.017469876, 0.040843185, -0.0048070955, 0.026340429, -0.0017216138, 0.007255985, -0.008431077, 0.0040252768, 0.011506793, -0.009587592, -0.024081644, -0.021010853, -0.029636685, -0.001141586, -0.028199553, -0.01303959, -0.0011016497, 0.025679104, 0.0022215291, 0.029824063, -0.013783586, -0.00011154014, -0.005839621, 0.024383312, -0.010556653, -0.006698106, 0.04845018, -0.0091729155, 0.028525993, 0.040311486, 0.00051385997, -0.0032309091, 0.031805124, -0.019793391, -0.056450315, -0.01696393, -0.0230278, -0.034932088, -0.056033444, -0.032631733, 0.013242278, -0.017216967, 0.0317104, 0.0067720325, 0.026061699, -0.01793655, -0.00798142, -0.03467251, -0.036593504, -0.034194957, -0.04411646, 0.013417399, 0.0036791314, 0.012343865, 0.0014501702, -0.0071026385, -0.040235884, 0.016854843, 0.025858318, 0.030866608, -0.00079368916, 0.0076798545, -0.016101502, -0.011900954, 0.0021185777, -0.059119944, -0.027683306, 0.00593284, -0.040119667, -0.041560248, 0.027570076, -0.032596163, -0.009835522, -0.026638754, 0.0016540975, -0.022235269, -0.0067675225, 0.0039302683, 0.015505132, -0.008135818, -0.00036943037, -0.03136188, -0.027518649, -0.028131014, -0.012446278, 0.025969021, 0.016002363, 0.012294359, 0.01935204, 0.0086068, -0.013426505, -0.05649384, 0.0034364127, 0.002575293, -0.028556518, -0.008986981, 0.020715706, -0.02729269, -0.0017821912, -0.010480376, 0.030099103, 0.020827223, 0.0040004035, -0.018646676, 0.02132791, -0.037666768, 0.026000338, -0.032955155, 0.013954356, -0.055852804, -0.014127946, -0.003654152, -0.03258301, -0.03973606, 0.028835893, 0.0143793505, -0.018369533, -0.031644665, -0.02628961, 0.00792854, -0.055111654, -0.052531898, 0.015111523, -0.0061385995, -0.021571064, 0.028218508, 0.00038594802, -0.006065854, -0.024002664, -0.014382486, 0.024903998, 0.010377901, 0.006917896, -0.022503672, -3.922305e-05, -0.006583103, 0.014382469, -0.018460872, -0.030265143, -0.047240715, -0.016537702, -0.040155362, 0.010300747, 0.019055957, 0.020537317, -0.020385532, -0.017719604, -0.037331138, -0.027105508, 0.0032873016, -0.0030611248, 0.008462778, -0.044226244, -0.031934194, 0.030438596, -0.019538255, -0.039948624, 0.014099587, 0.022741703, 0.01146806, 0.020934006, 0.011392648, -0.018075015, 0.0016579949, -0.037459772, 0.007400162, -0.017406298, 0.0040528425, -0.03441348, 0.019158913, -0.04634011, -0.020872923, -0.036903195, -0.017002268, 0.023948433, -0.015758341, 0.008521208, -0.009643532, -0.0016979049, 0.0025465947, 0.009783009, 0.0033260325, 0.006860837, 0.0047290903, -0.01873407, -0.016917601, 0.011970439, 0.0204119, 0.02515214, -0.029810863, 0.00045034022, 0.0052057584, -0.026391538, -0.05194299, -0.02287355, -0.006827308, 0.0036750848, -0.009671876, 0.020965239, 0.01847566, -0.03214961, 0.033489827, 0.023487495, -0.011382214, -0.007769888, -0.011964981, 0.01076837, -0.0053642103, -0.008590414, -0.05050829, -0.031565696, -0.0026432972, -0.010216624, -0.032943886, 0.013341773, -0.015698459, -0.012366883, 0.0022784588, -0.01870926, -0.041649375, 0.015526539, -0.040263474, -0.015910659, -0.02132402, -0.016287826, -0.0009659525, -0.0234588, -0.0016483695, -0.01665435, -0.032084722, 0.010141865, -0.033117443, 0.008727821, -0.012232795, -0.04357028, 0.014868979, -0.04844348, -0.013052339, -0.0122008035, -0.012076266, -0.009767267, -0.03775521, -0.016541516, 0.024122685, 0.011496519, 0.0038641389, -0.036115505, -0.019073494, -0.0485759, -0.041791562, -0.042256765, -0.013080988, -0.04844387, 0.015184423, -0.016309235, -0.017551214, -0.0113887945, 0.0083511025, -0.01379079, -0.043973856, -0.018742168, -0.033403046, 0.01768073, -0.014992853, 0.0022639798, -0.023658793, -0.0033106273, -0.035775714, 0.0043983394, -0.039204046, 0.004680789, 0.0003578238, -0.02144404, -0.044681087, -0.050050914, 0.0092814835, -0.026070468, -0.037315644, -0.01886082, -0.0054362635, 0.007974801, -0.015954496, -0.015244713, -0.004335807, -0.007651921, -0.055149928, -0.027719399, -0.022123422, -0.05381001, -0.00718008, -0.00531594, -0.013839464, -0.055394858, -0.047346056, -0.04847721, -0.028434765, 0.016069893, -0.04047942, -0.024567362, -0.029446324, 0.0030352664, 0.0061698356, 0.0073611937, -0.059823666, 0.0009797636, -0.053500943, -0.037012197, -0.062240586, -0.02041044, -0.030460382, 0.0034668155, -0.062250137, -0.029622145, -0.05692482, -0.01601202, -0.0017591148, -0.041903257, -0.020237664, -0.029038867, -0.0022137195, -0.025284769, -0.041839294, -0.030057855, -0.024877064, 0.014879111, -0.0284618, 0.0065143933, 0.024550237, -0.020416982, -0.04424337, -0.042801503, 0.005982273, 0.004896782, -0.0577486, -0.013837443, -0.03615083,
    -0.03812174, -0.035080303, 0.024044935, 0.026478168, 0.008604849, 0.028493624, -0.0069559817, 0.02344284, 0.0061084027, -0.016199645, 0.039598323, -0.00010094042, 0.05279235, 0.04140783, 0.038357873, -0.016364569, 0.022391278, -0.0052587846, 0.011581769, 0.0048447773, -0.03117812, -0.0038701014, 0.005109648, -0.03141189, -0.029662069, -0.0083980765, -0.034404475, 0.012619759, -0.013855185, 0.017723091, 0.01926409, 0.019872598, 0.01615186, 0.045332413, 0.047951866, 0.031130454, 0.024132416, 0.0025648992, -5.24914e-06, 0.021388123, 0.027987782, -0.014228896, -0.014006765, -0.0085610235, 0.002942984, -0.017825015, 0.020076683, 0.041685782, 0.0030820696, -0.024321457, -0.022505539, -8.580832e-05, -0.02943217, -0.030982431, 0.015963621, -0.037781797, 0.003144416, 0.0020419462, 0.024087783, 0.05718675, 0.033515245, 0.0019584235, -0.042779602, -0.022659019, -0.053002074, -0.03732897, -0.053795584, -0.035521846, -0.059491426, 0.0024078346, -0.053156108, -0.025820576, -0.011281095, 0.014939177, 0.023185952, 0.021237617, 0.013539712, -0.0076032523, -0.015523437, -0.035436958, -0.037265155, 0.0018283607, -0.020088151, -0.0070142774, 0.002338464, 0.025468023, -0.0031849125, 0.03460813, 0.049444325, 0.026764968, -0.042663056, -0.057477653, -0.02830013, -0.03947938, -0.008040503, -0.030311443, 0.01127099, -0.026733417, 0.0013643671, -0.038250487, -0.030495154, -0.023094643, 0.023526363, 0.04522872, 0.06772153, -0.021581197, -0.044856157, -0.003973606, -0.039067794, 0.009082671, -0.02693552, -0.022935577, 0.019179173, 0.0068382337, 0.0018097098, 0.04945791, 0.053689465, -0.013320467, 0.032000657, -0.0075281872, -0.00080960453, -0.00024458085, 0.0051943706, -0.010265049, -0.013793791, -0.0071339076, -0.04249919, -0.006758806, -0.020529062, -0.031425416, 0.016022116, 0.031674467, 0.030321596, -0.0056105764, -0.03915951, -0.02432169, -0.016195778, 0.009102049, -0.046223152, -0.03714715, 0.022487018, -0.01807801, -0.0051481146, 0.0048450837, -0.0029148487, -0.0046576983, 0.024984531, -0.02495629, -0.0009276133, -0.019848697, -0.007958683, -0.05230515, -0.008744296, -0.039115798, -0.037897322, 0.0016547875, -0.040210262, -0.016597662, 0.0150614735, 0.022881685, 0.017186867, -0.039423253, -0.030200029, 0.017126486, -0.015884023, -0.02101048, 0.020187419, -0.011428138, 0.014697675, -0.004942835, -0.0152886035, 0.02785646, 0.0101899775, 0.0005565097, -0.012837198, -0.005398506, -0.0037595222, 0.012859513, -0.02601689, -0.040328305, -0.016511103, 0.030060517, -0.015617661, -0.04714115, 0.011672944, -0.039635766, 0.02925243, -0.013646241, 0.03485286, -0.008128503, -0.0056776926, -0.017227028, 0.0014985575, 0.027462665, -0.023825586, 0.017699324, 0.029026004, 0.009495094, -0.022232017, 0.010882172, 0.0366088, 0.008962716, 0.020220466, 0.004273866, 0.00024372402, 0.0056527364, -0.039310347, -0.004214326, -0.00026489838, -0.0036645564, -0.041342176, 0.015171278, -0.018607438, 0.03329388, 0.013404767, -0.024775922, 0.023368977, -0.028171794, -0.0031018322, 0.03310986, 0.011757725, -0.008421237, 0.01557455, -0.018258892, 0.017022785, -0.009647299, -0.0058698133, -0.015473224, 0.025762027, 0.02526094, 0.021186907, -0.008197062, -0.01927722, -0.003566082, -0.040193263, -0.0049577043, -4.913371e-05, -0.026430245, -0.02558075, 0.034959998, 0.035378247, 0.041076638, -0.0046703736, 0.0049294936, 0.017888667, -0.020041473, -0.01902364, -0.019003347, 0.016657544, 0.0077267564, -0.039328203, -0.015615104, -0.055050135, -0.022607816, 0.0054686703, 0.035901975, 0.00027135562, 0.048838295, 0.02107312, 0.010850389, 0.023810007, -0.043626457, -0.04560363, -0.032832555, -0.03915985, -0.025547894, -0.033002954, -0.0059318747, -0.015956063, 0.047895543, 0.0058646114, -0.0042646183, -0.0044786762, 0.02549865, 0.006569502, -0.017893348, -0.022137966, -0.04764415, 0.013280139, 0.002781233, -0.0060762684, -0.012239214, -0.014400352, -0.009153179, -0.01684177, 0.05046171, 0.045996096, 0.007779688, 0.026511943, 0.030266652, 0.029792508, -0.009074171, 0.021910442, -0.035258245, 0.012065976, -0.011323716, 0.023653336, 0.007927516, 0.026562216, 0.028268639, -0.030523732, -0.015320398, -0.012892978, -0.055286665, -0.012097955, -0.043193147, -0.0053743953, -0.0033337334, -0.05781699, -0.007318958, -0.055331312, -0.017225413, -0.029988578, 0.03847694, 0.032588065, -0.012764709, -0.010391418, 0.015161515, -0.010469054, 0.028136084, -0.006890755, -0.01730186, 0.016608622, 0.029840011, 0.013975074, -0.021414733, -0.018383428, 0.026961584, -0.013104656, 0.0072076283, -0.025633484, -0.021649927, -0.040516797, 0.021077992, -0.010184466, 0.008551991, -0.0034730942, -0.013289325, -0.03252147, -0.0005225818, -0.04201991, 0.012690095, 0.03816774, -0.013264206, 0.017790753, -0.0040154424, 0.023008969, 0.004209555, -0.01219969, 0.018181723, -0.040688336, 0.022655953, 0.027841644, 0.026670726, -0.017947266, 0.0026497794, -0.05809952, -0.04437908, -0.03149977, -0.017203327, -0.0066618905, -0.010004046, 0.011737131, -0.012957192, -0.020680092, -0.008463671, 0.01227491, -0.011283741, 0.0004929188, -0.056675468, -0.0033851897, -0.004163431, -0.01225569, -0.042351503, 0.0046340423, 0.031283814, -0.014040663, 0.046246003, 0.0049052336, 0.031422112, 0.037084553, 0.033417605, -0.046949476, -0.009613069, -0.025281325, -0.04159186, -0.006834445, 0.008806179, 0.006144311, 0.031188821, -0.013846313, 0.036066193, 0.023131931, 0.0024918108, -0.04736374, -0.019475395, -0.039539766, -0.0524477, -0.017791362, -0.036324635, -0.025337204, -0.004828546, -0.0005585582, 0.048572343, 0.03873934, 0.049118243, 0.0084494185, -0.00074994843, 0.04626143, 0.013858825, -0.037164185, -0.0014246306, 0.015565522, -0.0366843, 0.010682302, 0.019110052, 0.040185228, -0.013134616, 0.017358642, 0.013124674, -0.024866225, -0.015449274, -0.007219517, 0.011799881, -0.025791427, -0.046490863, 0.013699536, -0.011268136, -0.024661016, 0.013955374, 0.026424378, 0.065885484, 0.06226265, 0.06877182, 0.012400338, 0.02048479, 0.049595065, 0.041434053, 0.034719877, 0.025980465, 0.03267223, 0.019064268, 0.021021584, 0.019068891, -0.0076079573, 0.036974713, -0.017285036, 0.0071033775, -0.020448152, -0.020031871, 0.022973308, -0.007441007, -0.0064789806, 0.004359148, -0.007226818, -0.020124346, 0.042257033, 0.056853987, 0.07183623, 0.063714445, 0.040394448, 0.033802103, 0.016368248, 0.03406721, 0.0030412483, 0.041546088, -0.010286556, -0.010441288, 0.040486515, -0.00036877306, -0.0042352187, -0.019818278, 0.021918625, -0.037183132, -0.02692323, 0.019937435, -0.024195675, 0.01224233, -0.018743824, 0.042513505, -0.015557881, 0.033251088, 0.022835273, 0.0417869, 0.035088927, 0.052253097, 0.027517552, 0.08384651, 0.04121569, 0.022582589, -0.0013519187, -0.029167313, 0.014414697, 0.05668383, 0.031200329, 0.024956724, 0.043273143, 0.010761434, 0.040495355, 0.039437607, -0.0066770245, 0.017412346, -0.055365663, -0.058119025, -0.022689566, -0.043815814, 0.016510114, -0.031297605, 0.02514071, -0.026042186, 0.02145885, 0.033601053, 0.0179935, 0.08465589, 0.02598751, -0.008177029, 0.021511914, -0.027962428, -0.025066832, -0.011915201, -0.015684063, -4.2560907e-05, 0.024567537, 0.018046675, -0.017251939, 0.015267714, -0.0092637995, 0.030010028, 0.012751238, -0.0008342235, -0.009644847, -0.016029742, -0.027354581, -0.022234658, -0.03255231, -0.028679883, 0.008092687, 0.0294474, -0.0114173535, 0.0063052475, 0.07473082, 0.033675015, -0.016918128, -0.022449361, -0.0014268674, -0.0025039485, -0.04454068, 0.030914212, 0.04518324, 0.02229001, 0.008381134, -0.0021346316, 0.033613365, 0.00022845829, 0.010019073, 0.0020694816, 0.050301638, 0.035536084, -0.024099024, -0.010912521, -0.03115853, -0.04156445, 0.0023890224, 0.02232491, -0.024917109, 0.048626635, 0.013126544, 0.051030573, 0.04548033, 0.036646884, -0.009133676, 0.017001666, 0.013895734, -0.024378844, -0.025976975, -0.017114181, 0.010550239, 0.031680834, -0.015837729, -0.03654373, -0.0071705603, -0.015018693, -0.004282637, -0.015736207, 0.03926293, 0.015322633, 0.00815281, -0.026410831, 0.008622078, -0.025297219, -0.0006165363, 0.00051157916, 0.017621323, -0.02675589, 0.013904258, -0.00228466, 0.014975092, -0.017548745, 0.0047612633, 0.0066276775, 0.009401563, -0.013785684, -0.010314835, -0.03134599, -0.029572925, 0.01903382, 0.021889139, -0.0064059636, -0.02655299, 0.005566149, 0.02347566, -0.02251173, 0.028025365, 0.032150794, -0.020952037, -0.021386342, -0.020498013, 0.0049518324, -0.013365553, -0.010294943, -0.023475964, -0.0023206214, -0.023662897, 0.031446572, 0.014376394, -0.0077348244, -0.022590455, -0.030746335, -0.045440856, -0.03927611, -0.013839188, 0.01991022, -0.015152589, 0.0019635712, -0.027512973, 0.018443674, -0.017699465, -0.024882449, -0.052222118, -0.03983054, -0.008975257, -0.01728033, -0.00042691256, 0.0066985027, 0.006136119, 0.0015236643, -0.013618859, 0.0034969759, 0.002244503, 0.01424757, 0.004348152, 0.0062714666, 0.02662451, 0.022874422, -0.001984058, 0.010875338, 0.008389554, -0.037796788, -0.030363102, -0.040680557, 0.021928797, -0.014265608, 0.007454114, 0.02666643, 0.02493945, -0.0043742107, -0.03160629, 0.01804601, -0.019456962, -0.0028866741, 0.027951, 0.014782487, 0.014039627, -0.030322213, -0.02389739, -0.045598194, -0.052330643, -0.039965134, -0.024705661, 0.030730609, 0.04948793, -0.01759544, -0.036594987, -0.049412716, -0.0032105038, 0.0074515147, -0.02477346, -0.028731462, -0.013219054, -0.02226237, 0.020881202, -0.047324806, -0.05693516, -0.02516542, 0.013051747, -0.012017475, 0.021006346, -0.019143656, -0.009704448, -0.042669058, -0.029458696, -0.05368775, 0.0082193315, -0.015220167, -0.032219987, -0.048628822, 0.0060022785, 0.006396686, 0.014776364, 0.02151462, -0.03031418, -0.014498541, -0.065077916, -0.041938804, -0.03608962, -0.02086046, -0.022483965, -0.060429975, -0.06778379, -0.014985024, -0.029155795, -0.047155242, -0.031205153, 0.009100159, 0.0005946292, 0.030659407, -0.0080411015, 0.022527713, -0.036630027, -0.007191591, -0.028372329, -0.07073973, -0.020460976, -0.053898506, -0.03831841, -0.0050508436, -0.0697421, 0.0053078877, -0.021141443, 0.00033884725, -0.040823422, 0.0012316484, -0.02796257, 0.0034492419, -0.029155511, -0.013686649, -0.042709474, -0.03380703, -0.04357967, -0.019766252, -0.011659294, 0.02359921, 0.023858396, -0.04053358, -0.016228458, 0.013493145, -0.02978458, -0.041398853, -0.0837959, -0.06785497, -0.029878508, -0.014914299, -0.025900656, -0.035172362, -0.06103672, -0.048141327, -0.045453355, -0.03928205, -0.017999219, 0.01959435, -0.0013280123, 0.035682183, -0.014807453, -0.0022910752, -0.03280295, 0.031278737, -0.011866831, 0.009973469, 0.0029798485, 0.017420681, 0.0097678285, -0.031763628, -0.0344474, -0.039988313,
    0.017058568, 0.022529135, 0.023473218, -0.0051877885, 0.020837434, -0.036740817, -0.012575961, -0.039001796, 0.03650057, 0.042635202, 0.012672933, 0.04726781, 0.052847825, 0.012535287, -0.019297613, 0.04045674, -0.0019659337, -0.029766636, -0.027858445, -0.00043415753, -0.05034325, -0.025774818, -0.028100919, -0.04418377, -0.005255622, -0.013392139, 0.00995711, -0.044201255, -0.02594916, -0.005525021, -0.027555658, -0.03372604, 0.010782895, 0.0036178515, 0.03160847, 0.022519857, -0.019598356, -0.0076317796, 0.018968578, 0.01211388, -0.004022522, 0.020904804, 0.04061563, -0.013435883, -0.00025311223, 0.037422664, -0.012403634, 0.0018370396, 0.003991258, 0.0035378246, -0.02445068, -0.002003142, -0.00020285562, -0.05212205, -0.04526215, -0.037092842, -0.0546132, -0.037691798, -0.0037213212, 0.011840831, -0.009458601, 0.026226355, -0.0038000904, 0.018438347, 0.011452744, 0.00406179, 0.0076614614, -0.005400875, 0.014958994, -0.01758335, -0.021177286, -0.0048491354, 0.013719013, 0.01455151, 0.03257639, 0.029985785, -0.022605415, 0.028435385, -0.008531603, -0.0080559375, -0.005732899, 0.016753776, -0.015238605, 0.024012696, -0.042701907, -0.060906168, -0.030119617, 0.03800767, 0.007832447, 0.042445492, 0.018901603, -0.036719527, -0.02665456, 0.010909295, -0.046130616, 0.011859271, -0.036705874, 0.0015546342, 0.0019070078, -0.029809428, -0.026687074, 0.024404854, -0.019664591, 0.0024271044, -0.00071876106, -0.012934043, 0.022470774, -0.012541814, 0.012220473, -0.009840798, -0.02813299, -0.0018049451, -0.0117266225, -0.012768443, -0.021278199, -0.011862702, 0.05011688, 0.034064233, 0.022580352, -0.0019948077, -0.02916506, -0.032872353, -0.038442153, -0.038673874, -0.021643745, 0.0005716162, -0.020025205, 0.018630521, -0.031093368, 0.029047279, 0.01752326, -0.0038698143, 0.0053081745, 0.0004975255, 0.0009756397, -0.0022022258, 0.01580186, -0.020286832, -0.023480726, 0.016056085, -0.04208409, 0.022245474, 0.035929002, 0.047193978, 0.036508627, -0.018224254, 0.0015963659, 0.014732972, -0.013288086, 0.01735304, 0.010920123, -0.021634797, -0.027445145, 0.004563322, 0.01057672, 0.00848884, 0.022153096, -0.0215641, 0.00859213, 0.031713266, 0.03417684, 0.04560224, -0.017711505, 0.0044523086, 0.016241832, 0.021717, 0.03605971, -0.023528978, 0.021955753, -0.01491313, -0.010408232, 0.025700027, 0.05540867, 0.008411937, -0.0133689, 0.013876516, -0.023414336, -0.037293836, -0.0041138683, 0.0013086593, -0.036277574, 0.00024527177, -0.042580556, -0.034775384, -0.03455215, 0.04153104, 0.056010783, 0.027915396, 0.01942516, 0.065833874, -0.00806983, 0.010097124, 0.018383866, 0.026711391, 0.030627841, 0.023220906, 0.027155336, -0.0061049135, 0.0039171567, 0.024607887, -0.003493364, 0.04619212, 0.016300729, 0.034703143, 0.014564702, -0.048822112, -0.051693857, -0.04244741, -0.019507492, 0.003479814, 0.0051040333, -0.005213881, -0.012381674, -0.0010000058, 0.01056641, 0.0025788366, 0.02639245, 0.006177422, 0.0038567896, -0.0015308701, 0.029269127, -0.004114533, 0.0021357262, 0.022370115, 0.035611797, 0.029815236, -0.013162855, 0.045576975, 0.0186687, -0.0075503998, 0.009567125, 0.01320122, 0.0036591075, -0.0416881, -0.001963867, -0.036042966, -0.040120628, 0.012032523, -0.011632917, 0.014358842, 0.0030587653, 0.0152642215, -0.017101454, 0.025148395, 0.051436327, 0.020210238, 0.029086672, 0.03230265, -0.0023596648, 0.009519096, 0.032952137, 0.02522696, 0.016444894, -0.011847223, 0.037111502, 0.025104309, 0.0049532386, -0.029328771, 0.019981503, -0.018647555, -0.026953215, 0.0011836764, -0.033481643, 0.009406589, -0.0034044913, -0.051788967, 0.00060501654, 0.009424076, 0.014804275, 0.026717523, 0.014282251, 0.0020501423, 0.04579824, 0.057061207, 0.029987833, 0.07477169, 0.02048923, 0.035468347, 0.053221136, 0.020693801, 0.01732986, 0.017841034, -0.007741457, 4.5886274e-05, 0.010269125, -0.018856404, 0.0064622024, 0.037449244, 0.034680296, -0.025886334, -0.0432779, -0.014769914, -0.05318536, 0.012252169, -0.0030831438, 0.0058967355, -0.05573567, 0.006709797, 0.021948403, 0.014330919, -0.026384711, 0.000141427, 0.041510575, 0.022244798, 0.060727287, 0.066996045, 0.025836622, 0.07536771, -0.036498696, 0.0052386587, 0.03759195, 0.03189768, 0.020420535, 0.048312973, 0.05291006, 0.03360015, 0.04281956, -0.014630013, -0.013947664, 0.011105587, -0.009261262, -0.03542427, -0.025345424, 0.0078319125, -0.05121613, -0.037967768, 0.01704083, 0.00315959, 0.008221927, -0.0258174, 0.017724292, 0.055974297, 0.035979338, 0.078172274, 0.019339612, 0.067605786, -0.0077010957, -0.008307475, -0.018733824, 0.036101736, 0.023568474, 0.018906264, 0.017190056, 0.034165964, 0.004172457, 0.042958442, 0.0058874968, -0.042542618, -0.058555342, -0.014239896, -0.040525712, -0.04102464, 0.012145818, -0.028980412, -0.009757102, -0.015196235, -0.0325771, -0.02399099, -0.02128642, -0.006762621, 0.02566107, 0.05966025, 0.079175204, 0.039523464, -0.020330561, -0.014743688, -0.009778987, 0.019754583, -0.0015699936, -0.003269837, 0.0100882435, 0.020909939, 0.023621, 0.04527896, -0.0033739763, 0.015789876, 0.011107157, -0.04345194, 0.0035859372, -0.020258427, -0.03367903, -0.03833348, -0.0401389, -0.049850754, -0.070074975, -0.023551172, -0.04087783, -0.027917633, 0.0326137, 0.07105074, 0.07647077, 0.056360565, 0.010512681, 0.019658519, 0.029717116, -0.022043137, 0.026374256, 0.029281134, -0.0075076562, -0.0068597062, 0.024760583, 0.020912135, -0.026426347, -0.040310647, 0.001088944, -0.0004975017, 0.005220294, -0.040852483, -0.016206674, -0.032268446, -0.030564222, -0.04535781, -0.012486921, -0.059276342, -0.04453896, -0.010675453, 0.014965727, 0.055678625, 0.008243954, 0.0031485264, -0.03462174, -0.0006920531, 0.028607003, 0.008949213, -0.019980222, -0.028292576, -0.02149016, 0.023468897, 0.018407332, -0.036481775, 0.011512778, 0.0045598573, -0.032235254, 0.027904585, -0.036322385, 0.026642134, -0.029462177, -0.02432533, -0.023877643, -0.045611106, -0.04206835, -0.0450059, -0.043080956, 0.020631274, 0.03571113, 0.025898729, 0.044359665, 0.008727219, 0.0042542247, -0.030606747, 0.00432922, 0.017309362, -0.0028069685, -0.008009039, -0.02674943, -0.047259558, -0.01113669, -0.009719005, -0.04438664, 0.011418879, -0.02656756, -0.0349668, -0.010208346, -0.05023395, 0.009392297, -0.02403868, -0.045035448, -0.017602567, 0.012971481, -0.03424065, -0.042620126, 0.00179371, -0.020285541, -0.014025728, 0.028157758, 0.0028188347, -0.025024949, 0.023686059, 0.025551533, 0.028436264, 0.023949126, 0.008187371, -0.043391284, 0.0040450986, -0.0010079818, -0.033037093, -0.0032625224, 0.011168679, -0.015414855, 0.011351629, -0.038326025, -0.024853243, -0.05535708, -0.026779654, 0.01122875, -0.024216834, 0.0056326143, 0.011996693, 0.0026069693, -0.018410672, 0.038968768, 0.04634607, 0.017156, 0.024193943, 0.02023216, 0.0078045875, 0.019189497, 0.013034025, 0.0011500206, -0.013550818, -0.037378926, -0.0060718725, -0.025697185, 0.012712026, -0.037726287, 0.0057020914, 0.013455222, 0.009442434, -0.045575183, -0.044934604, -0.031788617, 0.0035486883, -0.057552762, -0.04720579, -0.047936957, -0.038717695, -0.024461085, -0.0015541093, -0.0105817355, 0.009616963, 0.0029733425, 0.03378752, -0.007869048, -0.023117928, 0.016878298, -0.00508298, 0.00054146315, 0.0069150804, 0.0050041024, -0.04680343, -0.03391084, -0.0046094884, -0.008009195, -0.04734596, -0.02088701, -0.036963772, -0.03608164, -0.0116983885, -0.003032995, -0.025129061, -0.00013049493, -0.029672654, 0.015188523, -0.03674264, 0.009610463, 0.019959573, 0.0551481, 0.023637723, 0.030217914, -0.0072890976, -0.023217814, -0.0056319833, 0.030879684, 0.022098305, 0.025431804, -0.0003673584, 0.00042099878, -0.030275328, 0.022815242, -0.026900757, 0.013006066, -0.0097514875, -0.0422789, -0.021711342, 0.020139404, -0.016174644, -0.02255306, -0.03199435, -0.026195439, -0.013562224, 0.0017184087, -0.0035241083, 0.035386693, 0.021703951, -0.006543295, 0.023860004, 0.03849246, -0.008842803, 0.0067186253, -0.03496501, 0.0139165055, 0.02121691, -0.037923124, -0.0077813724, -0.002460186, -0.0027064476, -0.02922057, -0.033876903, -0.032794658, -0.02701404, 0.012150493, -0.033460014, 0.026328392, -0.015957791, 0.02168912, 0.011255679, -0.006906948, -0.009795161, -0.028946087, 0.019854192, -0.02612128, 0.004758251, 0.00043563073, 0.034562796, -0.02619506, 0.03135342, -0.036364518, -0.03932928, -0.013319166, -0.020805433, -0.04383757, -0.028809188, -0.000311765, -0.028296364, -0.044194583, -0.055410966, -0.051204477, 0.006715065, -0.01504326, -0.008953793, -0.032258317, 0.009619727, 0.021009175, 0.026766641, -0.0031882226, -0.04211144, -0.022000453, 0.026066743, -0.054461125, 0.001434882, -0.01991794, 0.015623518, 0.02293239, 0.029800931, 0.006347286, 0.014832762, -0.02750689, 0.025673635, -0.045856297, 0.022177154, 0.01165494, -0.055804264, -0.007469772, -0.06278017, 0.0050574527, -0.016204799, -0.041550525, -0.039678287, 0.01646978, 0.023297738, 0.01667468, -0.0074542835, -0.04147032, 0.008510752, -0.006761162, -0.05203368, -0.028470878, -0.036763586, 0.003315042, 0.010317532, 0.0060509527, 0.0593472, -0.0016130044, -0.027478151, -0.019154446, 0.014693414, 0.013379558, -0.033662237, -0.016142258, -0.05423232, -0.028652642, -0.053465437, -0.0072536957, -0.0075863283, -0.017023772, -0.018304944, 0.01682167, 0.0067598857, -0.003808071, -0.021210797, 0.0130885085, -0.06831583, -0.033081487, -0.03776207, -0.009415422, -0.027167337, -0.02809428, -0.012263987, 0.019708304, 0.0015702818, -0.008546357, -0.009067452, 0.0072401557, -0.00029340648, -0.010347987, 0.011201037, 0.014934704, -0.010425205, -0.033958677, -0.01610174, -0.023670197, -0.007554823, -0.034448963, -0.04406496, -0.04704721, -0.0247024, 0.010763968, -0.054606877, -0.05271309, -0.017724598, -0.026404554, -0.05773117, 0.0070073535, 0.012703374, 0.039188653, 0.03374919, -0.01133209, 0.014852952, 0.012181857, 0.029890647, 0.015538691, 0.0100276135, 0.013567291, 0.0035128566, 0.024134398, -0.010028882, -0.05353736, -0.028820656, -0.01520692, -0.018870868, 0.003607248, 0.017001493, 0.0037065113, 0.017426169, -0.03490532, 0.011921564, -0.020671474, 0.01443626, -0.0051403353, -0.018235011, -0.025713928, 0.005664616, 0.021010168, 0.046708394, 0.02141341, 0.046414673, -0.039315913, -0.024391329, -0.026066724, 0.036170397, -0.019996863, -0.002948898, -0.021657139, -0.032313876, -0.029330695, -0.0028722167, -0.014933823, -0.011871692, -0.0068100058, -0.006663899, -0.017570456, -0.017099611, 0.014959103, -0.032218125, -0.029056083, -0.040521394, 0.006747834, 0.021919608, 0.015164454, 0.020379268, 0.03657492, -0.0073222807, 0.04830595, 0.020817949,
    -0.043410692, -0.0073044635, -0.029004509, -0.01962009, 0.015532445, -0.014143988, 0.015558141, -0.028933184, -0.030661393, -0.046162296, 0.008520892, -0.027098406, 0.0139479535, -0.031098215, -0.051359583, -0.030409964, -0.019929983, -0.010821162, -0.016931409, -0.01721829, -0.014767123, -0.051369444, -0.03291503, -0.029404873, -0.049201142, -0.020291472, -0.029172467, 0.0032606486, 0.0038998912, -0.018564431, 0.0171121, -0.009314317, 0.027094604, -0.027941419, -0.019612456, 0.0004978527, 0.007904759, -0.036599066, -0.0043035964, -0.012704661, 0.00062840915, -0.045175273, -0.011623633, -0.00824611, -0.012339361, -0.06741719, -0.026600538, -0.046750974, -0.03285411, -0.01149389, -0.042285204, -0.04140243, 0.014315071, -0.02785937, -0.046521842, -0.047597427, -0.036882907, -0.02201547, -0.026254494, 0.027603867, -0.016125102, 0.014782337, -0.0052655647, -0.009329969, 0.014436497, 0.020168645, -0.0074248654, -0.059277315, -0.06385265, -0.041400433, -0.059628442, -0.05577485, -0.063389055, -0.03869979, -0.009760473, 0.016186798, -0.048915718, -0.04538233, -0.025485136, -0.012507459, -0.048159238, -0.033471655, -0.03622914, -0.017689345, -0.006996091, -0.030714506, 0.027222253, 0.00025944487, -0.01002794, -0.02787037, -0.0016641606, -0.028662162, -0.029773917, -0.009377576, -0.018040285, -0.052362688, -0.036631983, -0.0659758, -0.0056951162, -0.036821637, -0.029159958, -0.06241099, -0.04144987, 0.0015289224, -0.00022671209, 0.0044195643, 0.016666472, -0.008468487, -0.02639566, -0.03367267, -0.026665026, -0.022510888, -0.04973871, -0.022654464, 0.015027291, -0.020519745, 0.016116923, 0.01838614, 0.016207147, 0.016563715, -0.0013453492, -0.018722298, 0.012925461, -0.016399411, -0.06189212, -0.063262835, -0.018996708, -0.018478755, -0.03721928, -0.019315377, -0.005229316, 0.005540324, -0.011842263, -0.030142698, -0.0424096, -0.051089674, -0.019140972, 0.0011203061, -0.011457332, -0.004273544, -0.033785738, -0.0027851772, -0.015136846, -0.021772109, -0.027470715, 0.031720653, -0.0055866353, -0.019480756, -0.048573945, -0.026472354, 0.021965623, -0.01922738, 0.008210607, -0.062170256, -0.061584346, -0.006479784, -0.027996834, -0.051228594, -0.04365176, 0.00054441136, -0.014782971, -0.015738858, -0.009904388, -0.05477959, -0.023398677, -0.012138535, -0.0067491257, -0.03380366, -0.035366505, -0.04439129, -0.03878755, 0.006517869, -0.02490038, 0.019854955, -0.023402736, -0.02028678, -0.0452478, -0.018900365, -0.013031199, 0.0278455, -0.014068078, -0.060782306, -0.052888963, -0.0011221713, -0.0198033, -0.011429963, -0.051690664, -0.031883057, -0.03472262, 0.0051201554, 0.0011812579, -0.019313183, -0.057583418, 0.010356243, -0.057833575, -0.0041724085, 0.026751516, -0.052051242, -0.042140294, 0.0036120059, -0.029268876, -0.036702756, -0.025312241, -0.015178844, -0.040919848, -0.027887158, -0.026127828, 0.0032857675, -0.010176618, -0.03416515, -0.04040561, 0.016705906, -0.029958775, -0.02889018, 0.019749397, 0.011719744, -0.024867345, 0.018661598, -0.015785666, 0.0046456726, 0.0014313998, -0.036102295, -0.012454038, 0.012506452, 0.020609701, -0.046018142, -0.032342892, 0.013712084, -0.037665218, -0.010552274, -0.055422228, -0.06561087, -0.0022257315, -0.030534532, -0.027523762, -0.03844283, -0.04480604, -0.0003236836, -0.03311229, -0.035492115, -0.0013932469, -0.024239205, 0.03716362, -0.027111145, -0.025483642, -0.010415394, -0.028870264, -0.002848869, 0.006916271, 0.0055595147, -0.020078987, -0.048722282, -0.01834305, -0.05327023, -0.016376128, 0.022474041, 0.00595029, -0.042900506, 0.0014860545, -0.029776705, 0.008785917, -0.012228917, -0.03482975, -0.040111057, -0.0075858957, -0.05025634, 0.0010160602, -0.006077514, -0.023064267, 0.011471936, 0.028846962, 0.02255619, -0.03709962, -0.017385665, -0.01624402, -0.022605868, 0.0033966182, -0.0207427, 0.00985398, -0.027138095, -0.0014763623, -0.0389073, -0.010621449, -0.014755465, 0.011893145, -0.014209831, 0.0046386495, -0.015899012, -0.038999327, 0.0034817904, -0.0003098012, -0.05354276, -0.014044927, -0.024063015, -0.01725539, 0.010246139, -0.00071614794, -0.0066169673, 0.024477582, -0.016279517, -0.024244564, -0.042687062, -0.036846116, -0.052094605, -0.042366333, -0.050881952, -0.06315192, -0.0011582677, -0.04876595, -0.0005310033, -0.005652677, -0.0035439173, -0.037050255, -0.027242802, -0.043866616, -0.050945815, 0.008474098, -0.02548053, -0.055180784, -0.03217931, -0.012007058, -0.01393815, -0.030126248, -0.00048685115, 0.013147063, 0.033847734, -0.015142651, -0.0027355272, 0.01726307, -0.028128034, 0.012548112, -0.032263923, -0.040833846, -0.013148119, -0.05675781, -0.031391356, -0.02112385, -0.033818115, -0.0064250366, 0.025948722, 0.008026408, -0.034547463, -0.03858143, -0.018536415, 0.017979644, 0.023526642, -0.03396956, 0.024888288, -0.0122577185, 0.0037615898, 0.011768261, 0.01399115, -0.023017399, 0.037858907, -0.020682592, 0.038609546, 0.03853125, -0.023043375, 0.018426547, -0.024541847, -0.009886584, -0.04772384, -0.029593244, -0.03484317, -0.028005, -0.035361376, -0.0031461788, -0.012604278, -0.0049529923, 0.0057167616, -0.005101674, -0.03976215, -0.010425106, -0.027612058, 0.00051642023, -0.029459618, 0.0026111682, 0.023720417, -0.018601043, 0.010724154, -0.011566156, 0.0051689623, 0.008771883, 0.044048715, 0.045969423, 0.009132324, -0.02612857, 0.019811198, -0.008967957, -0.03027782, 0.006786827, -0.043197893, -0.0113194045, 0.02120957, -0.0069560977, 0.0068607437, 0.020455943, -0.03453615, 0.018791575, 0.0035444435, -0.0026463887, 0.029961703, 0.02260185, -0.02871818, -0.03221765, 0.023148756, 0.031180114, 0.023107866, -0.024373787, -0.021725757, -0.019593466, -0.010635541, 3.6920494e-05, 0.0023356313, -0.024571836, 0.0021084268, -0.012547915, 0.0020503025, 0.005155655, -0.02808573, -0.03739515, -0.020991638, 0.013831486, 0.009768953, 0.00028333676, 0.040664837, 0.02722419, -0.0042030117, -0.00068583945, -0.010395979, 0.01805493, -0.025858011, -0.02178746, -0.011552212, 0.027720809, 0.047188047, 0.01793218, 0.019128717, -0.0056118015, 0.009982298, 0.029930945, 0.011029339, 0.044029903, 0.014735056, -0.020570455, -0.0014593942, -0.001016826, -0.013590684, 0.017893568, 0.034715306, 0.028434284, 0.04815581, 0.045570865, 0.051489193, -0.023682503, 0.009731797, 0.008618675, 0.0012171326, 0.041282117, 0.005844746, 0.004832549, 0.032884035, 0.020873109, 0.04182782, 0.024441842, 0.021136388, 0.015944732, 0.06412734, 0.023544285, 0.047091495, 0.017315015, 0.014015472, -0.012257869, -0.002826557, -0.008902933, -0.00068821147, -0.020652015, 0.008041794, 0.009021703, 0.0039670332, 0.045210443, 0.017421609, 0.03007831, -0.01717924, 0.005225784, 0.006238321, 0.0063088876, 0.022437815, -0.0054898653, -0.03346271, -0.0052203583, 0.009763885, -0.012875281, 0.0060025225, 0.058021598, -0.012238736, -0.0011986236, -0.020621546, -0.013160038, -0.022655679, -0.023828782, -0.027682366, -0.00633372, -0.009861109, 0.018378302, 0.010246662, 0.006749061, 0.0079803355, 0.04528711, 0.024374828, 0.03698309, 0.044111203, -0.004948327, 0.037050344, -0.013122755, 0.009144506, -0.014396233, 0.0043500867, -0.029578172, 0.033146523, -0.017466998, 0.051417194, -0.0037302165, 0.047318142, 0.048968166, 0.021633672, -0.031497903, 0.026280148, 0.035706874, -0.02388484, 0.0053504794, 0.032679264, 0.006328923, -0.0006793971, 0.039529443, -0.014026197, -0.0030755955, 0.027418291, 0.05342514, -0.012290226, 0.028894143, -0.016260235, 0.015985047, 0.019974733, -0.005892046, -0.009308026, 0.037357178, -0.008316682, -0.0295636, 0.007398866, 0.050352413, 0.018852713, 0.041797355, 0.046518136, 0.011674684, 0.034120776, -0.042326815, 0.025650939, 0.026016457, 0.027975785, -0.0058133835, -0.02112232, 0.010517972, 0.03583267, -0.0050350954, 0.040012367, 0.02503779, -0.011470952, 0.017793374, 0.006888787, 0.018579451, -0.031060152, 0.006661708, -0.029820977, -0.02627864, 0.019835439, -0.021304274, -0.013758789, 0.014749097, -0.011691042, 0.02790289, 0.038511056, 0.03157002, 0.009942197, -0.026649645, 0.03583844, 0.044656686, 0.048915297, 0.007920901, -0.010837697, 0.03205289, 0.006738843, 0.027016884, -0.014618868, 0.029155584, -0.002123569, -0.029173786, -0.016488615, 0.013775329, -0.055332646, -0.03203412, -0.018316275, -0.003000091, -0.03749953, -0.03280612, 0.022132335, -0.019621499, 0.03583395, 0.004392248, -0.03946131, -0.03284913, 0.00341033, 0.033938613, -0.01204112, 0.030661402, 0.010429149, -0.017981498, -0.021476457, 0.0014726825, -0.022033844, 0.019975787, 0.021940326, -0.008271742, -0.025189184, -0.005233651, 0.00042591966, 0.0043007676, -0.013114832, 0.0047673364, -0.036228765, -0.016284049, -0.011480056, -0.009302069, -0.026946235, 0.026085583, 0.0008123312, -0.016979394, 0.004689549, -0.032982633, 0.014382303, 0.026850265, 0.0012298214, 0.018807687, -0.019421948, 0.007440068, 0.014953843, 0.020170126, -0.010140679, 0.03263226, 0.030223334, 0.020604113, -0.00204144, -0.007240241, 0.03458953, 0.019614398, -0.002387927, -0.03160298, 0.015108631, -0.038580768, -0.03238773, -0.012066085, 0.009110288, 0.020255376, -0.03958789, -0.014516071, 0.009430619, 0.0066611897, -0.012933596, -0.006213503, -0.010304947, 0.01739833, 0.016569719, -0.0031633095, -0.02778751, 0.03198289, 0.00825071, -0.013507793, -0.023480713, 0.026257658, 0.03203871, -0.03326386, 0.0021760317, -0.030618114, -0.011872074, -0.0022901776, 0.012895732, -0.009478859, -0.034361284, -0.01298153, 0.0112266205, -0.020245366, -0.03157421, -0.010431571, -0.023918426, -0.027756395, -0.023134246, -0.0021030332, -0.026541654, -0.014196246, 0.019202905, 0.0037970925, 0.0012589457, 0.0053746556, -0.0019438086, -0.018130755, 0.009014848, -0.021147422, -0.010706118, -0.024202282, -0.04270415, 0.0027265681, -0.027281607, -0.033115346, 0.0048968596, -0.015129717, -0.050189495, -0.019315436, 0.013033924, -0.0056027602, 0.007280701, -0.01152434, 0.027283406, -0.0004518285, -0.016618678, -0.03595058, -0.010586482, 0.018952351, 0.0024247053, -0.027450677, -0.011913769, -0.010368413, -0.0026395987, -0.0506392, -0.05823593, 0.0056583905, 0.009254942, -0.052243743, -0.044522144, -0.04325678, -0.031002725, 0.002518237, 0.019136572, -0.023949577, -0.024251733, 0.046046004, 0.046445012, 0.040249042, 0.026760338, 0.04058046, 0.049939636, -0.013271191, 0.004290943, -0.030247215, 0.0018632181, -0.035280403, -0.038345873, -0.012139136, -0.01620184, -0.02242165, -0.015761197, -0.056810733, -0.014325259, -0.029919425, -0.028802333, -0.011563599, -0.01300723, 0.009111484, 0.028487578, 0.021431908, -0.02601249, 0.04345898, 0.040742006, -0.011277849, 0.030813148, 0.060980216, 0.008513618, 0.01194662, 0.03341242, 0.04462751, -0.022391634, -0.001198449, -0.02986761, 0.002152814, -0.011045356,
